1648 35
864 0.15058374 -0.25836214 0.5676939 0.5401368 -0.10199362 -0.7060553 0.32015857 -0.16142844 -1.011425 -0.030872988 -0.4646234 0.124844775 -1.2833518 0.22408924 -0.026141267 0.2278101 0.39571047 -0.5115825 -0.5868236 -0.21592215 0.5141543 -0.7917377 0.2373706 0.5443421 0.027850954 0.4600136 -0.45394433 -0.38684884 0.046991624 -0.1406061 -0.96370786 -0.052337103 0.64519966 -0.13110119 -0.40521187
1319 0.22676931 -0.19989793 0.63637835 0.14291704 -0.16020101 -0.9974251 0.5319149 -0.13321915 -1.192095 -0.10443753 -0.55929756 0.26391646 -0.8701366 -0.09338334 0.13778229 0.25183862 0.055298947 -0.53029084 -0.80819607 -0.16999555 0.26667488 -0.6446564 0.20605087 0.33984178 -0.12786542 0.68498033 -0.6764496 -0.53773123 0.30740276 -0.27297792 -0.87415963 0.35359684 0.73660904 -0.25791398 -0.16629261
1220 -0.22594059 -0.11755066 0.32626626 0.5467345 -0.30092973 -0.57899517 0.5988063 -0.19730566 -1.0517652 0.07068922 -0.36293218 0.28701448 -1.0883719 0.2438909 0.033297423 0.25274813 0.7345459 -0.79332757 -0.59507644 -0.094516 0.057217855 -0.86280376 0.23269702 0.41527212 0.20804963 0.4710173 -0.47273287 -0.25820613 0.28238508 -0.37082937 -0.8452975 0.5412364 0.87753594 -0.30530438 -0.2591016
862 0.11136008 -0.5384452 0.17457654 0.4333221 -0.44945288 -1.0202746 0.22268723 0.008630696 -1.0509906 0.030012267 -0.46403125 0.6026626 -0.8941189 0.35302418 0.07198639 0.18320626 0.478537 -0.863442 -0.60212713 -0.4111787 0.8719899 -0.57987064 0.115561 0.35719433 -0.43688926 0.58021736 -0.6388597 -0.22472902 -0.0042524217 0.063583635 -0.7363947 -0.10560878 0.769925 -0.5192839 -0.24351941
866 -0.062883385 -0.5302886 0.7162846 0.35320058 -0.2941032 -1.0525447 0.12256272 -0.25866854 -0.37856457 -0.03493232 -0.7685342 0.41089872 -1.1557508 0.40498516 0.09420901 0.16707604 0.5847084 -0.17290577 -0.98201627 -0.11917011 0.7079837 -0.6963285 -0.050283793 0.44184533 -0.21060722 0.34626558 -0.51056117 -0.49998525 -0.05311083 -0.117988005 -0.7735887 -0.21445994 0.5003028 -0.2851173 -0.49640325
1041 0.2512883 -0.4002377 0.33353502 0.6213119 -0.29616287 -0.75787514 0.15098666 -0.2523733 -0.85350585 -0.030922882 -0.26588395 0.5098175 -1.1052798 0.3900456 -0.12589246 0.093331575 0.61999816 -0.858793 -0.9665729 -0.13193764 0.6508464 -0.8031718 -0.013746975 0.36484492 -0.27640298 0.25895184 -0.8406626 -0.3675284 0.065392524 -0.016110951 -0.6955519 0.45953643 0.5133226 -0.059657935 -0.31074455
942 0.18856753 -0.14770068 0.13590066 0.81361854 0.19595031 -0.53285515 0.5646108 -0.41894618 -0.65908384 0.0675105 -0.41918808 0.595775 -1.1553235 0.06501968 -0.079459 0.19888271 0.38523647 -0.8431174 -0.5598767 -0.10243866 0.07548945 -1.2029412 0.10322815 0.8774496 0.16585745 0.36524105 -0.8454511 -0.21082616 0.21052982 -0.19179899 -0.8261556 0.06871939 0.8509754 -0.059952885 -0.25974226
1154 -0.058068793 -0.44342977 0.34570447 0.5412491 0.0024694954 -0.58038265 0.33534226 -0.31340086 -0.7433053 0.34001008 -0.64434147 0.48822066 -1.1816615 0.22303952 0.011142657 0.18226829 0.5051196 -0.59353215 -0.86008793 -0.16764373 0.73633057 -0.87449723 0.20112923 0.276262 -0.13923591 0.6285282 -0.8122817 -0.39088112 0.23886 -0.16217469 -0.6971042 0.2654729 0.6974653 -0.123810604 -0.07974826
865 0.19260232 -0.5064811 0.6270484 0.68738705 -0.32155615 -0.85742986 0.20779979 -0.093140975 -0.8337668 0.2876942 -0.49002355 0.37854624 -0.90892667 0.44243503 0.23968285 0.24456434 0.55547637 -0.5202325 -0.72970057 -0.09148416 0.83144027 -0.6804451 0.22376929 0.29257512 -0.07805257 0.3129509 -0.7809985 -0.4188641 -0.029813629 -0.15314795 -0.9626713 0.07588337 0.5385853 -0.22741117 -0.24655274
1186 0.19604899 -0.058387037 0.0931621 0.6061039 -0.19185781 -0.5863557 0.43692356 -0.61663777 -0.83599687 -0.0076442934 -0.51502806 0.35127592 -1.2534232 0.221692 -0.12945706 0.22874482 0.2754051 -0.8383215 -0.6410441 -0.2747824 0.20110106 -0.9038708 -0.097787485 0.38717237 0.22843428 0.5506491 -0.80847627 -0.2680635 0.23386857 -0.19598046 -0.8812732 0.23482364 0.99118763 0.19451898 -0.26033965
557 -0.16375206 0.0927907 0.54653865 0.55586004 -0.44548276 0.4490083 0.71590906 0.05435674 0.6047418 1.659152 0.6848127 0.9887427 -1.088171 0.5291079 -0.08928129 -0.3307838 -0.7708338 -0.66241264 1.2659123 0.02017115 0.78200513 0.26593307 0.32093105 -0.35713637 -0.16655777 1.296799 -0.5838448 -0.7139247 -0.04426883 -0.07310251 -0.04564801 1.3963879 1.1020101 -0.12797156 -0.654412
1049 0.33301723 0.13551474 0.42163274 0.57204115 -0.12494089 -0.62248415 0.705746 -0.3482029 -0.9456453 -0.023524832 -0.70639324 0.6034846 -0.9214438 0.35063973 0.3182596 -0.037776936 0.38397315 -0.79765993 -0.3135665 -0.52823985 0.11748478 -0.97219574 -0.1875808 0.48819193 -0.09945336 0.5278407 -0.40793422 -0.09733497 0.41649008 -0.40329027 -1.0462099 0.17048497 1.1768675 0.38976339 -0.18803082
857 -0.98283535 0.39974716 0.30546042 -0.4293031 -0.72137034 -0.19352205 1.0311611 -0.27023673 0.5479383 0.39770472 1.1838248 -0.04288895 -0.73787266 0.33744946 0.1671357 0.75588906 -0.30695698 -0.39773363 -0.42662528 -1.130154 1.3589187 -0.4715977 -0.32789186 0.040173084 -1.2838438 0.4483813 0.046747364 -0.9256712 -0.2991373 0.37359744 -0.26362708 0.29049498 -0.37889448 -0.4334653 -1.5080401
1185 0.014062733 0.24611193 0.22257154 0.47323126 -0.19851327 -0.78112835 0.5877415 -0.38176745 -1.2343178 -0.10203271 -0.4206955 0.48857653 -0.8108697 -0.0077557955 0.14503135 0.08322283 0.47115356 -0.6034838 -0.4571076 -0.24261612 0.24852917 -1.0153353 0.0882383 0.4608343 0.04108421 0.88003296 -0.9592456 -0.59369916 0.3602311 -0.5309785 -0.6447546 -0.035984095 0.85554194 0.31890553 -0.64177734
869 0.27151093 -0.4951366 0.18406065 0.60997957 -0.39912245 -1.1383039 0.060903743 0.2269123 -0.86515445 -0.3429915 -0.32182088 0.44193873 -1.141286 0.68284875 0.13409641 -0.0074410937 0.49699032 -0.9931369 -0.5285084 -0.22005032 0.844452 -0.7129206 0.27575305 0.34823743 -0.52118945 0.36932072 -0.49243924 -0.7235293 -0.11370276 -0.060428716 -0.9583929 -0.16001807 0.6636893 -0.2695241 -0.38036942
506 -0.16415115 -0.13411492 0.5403389 0.7339204 -0.16037302 0.7591668 1.270466 -0.2653559 0.42176569 0.96230906 0.062097706 1.4903512 -0.6999248 1.4445382 -0.07232643 -0.39568493 0.044224307 -0.9628789 0.77920234 -0.19722475 0.7206849 0.65843296 -0.107078284 0.4742155 -0.6949408 1.1777492 -0.38072473 -0.4930053 -0.27354646 0.73895854 0.6339482 0.26074684 1.0957388 0.011890896 -0.47589388
521 -0.009808395 -0.03310008 0.7802536 0.82916546 -0.3357844 0.45200792 1.0410954 0.067500666 0.70685303 1.5258636 0.2667594 1.3538095 -0.9912041 0.85541606 -0.115394056 -0.24050325 0.018223526 -0.68099153 0.8338879 -0.20025364 0.4707298 0.6413762 0.37274066 -0.31240365 -0.6134423 0.88848037 -0.7089408 -0.9230171 0.0761713 0.70288867 0.5496149 0.6815767 1.0846044 -0.17775385 -0.56945777
1144 -0.08242111 -0.52416795 0.6878587 0.68318015 -0.096876375 -0.68611 0.03647543 0.007260311 -1.0012866 0.19365692 -0.8037358 0.5939136 -0.9686198 0.37838772 0.29317772 0.09355259 0.49913323 -0.43451795 -0.7264199 -0.230496 0.41793573 -0.6404587 -0.04717496 0.2956635 -0.5531328 0.56063455 -0.72593576 -0.51826954 0.50062245 0.24549359 -0.7900461 0.28797063 0.72395 -0.14804968 -0.09166717
876 -0.3187536 1.2002025 -0.106050394 -0.12437601 0.09445118 -0.46922335 0.5380231 -1.0908169 -0.7712001 0.912364 -0.52765584 1.3831388 -0.64446026 0.020282997 0.7465649 0.25096127 -0.15361667 -1.1107798 0.6361795 -0.22797607 0.03249241 -1.2665011 -0.09559777 0.24418637 -0.8984443 -0.07776829 0.4916752 0.095512085 0.397305 0.22184077 -0.80980575 0.72460693 1.002164 0.7256246 -0.60248494
570 -0.8688792 0.66727763 0.11606623 0.24329653 -0.88581693 -0.32816902 0.28697366 0.4536668 0.712434 0.18003052 -0.04511277 0.07261144 -1.5422319 0.91140246 -0.27804455 0.030011564 -0.4219544 0.14098318 1.0541304 0.7217522 0.36680245 0.4924208 -0.02582109 0.21080424 -1.0455316 0.9973079 -1.0069305 -1.0391225 -0.0702422 0.557629 -0.50821084 1.3980002 1.4120717 0.55049855 0.05381327
979 -0.69738555 1.1695485 0.38131717 0.80773616 -0.017678095 0.11040001 0.8085538 -0.32448116 0.76730293 1.1950717 -0.5562154 0.79463 -0.33325514 -0.5731659 1.1893747 0.40451655 -0.60638666 -0.46482444 -0.33921072 0.08381493 0.11634404 -0.74763566 0.56059486 1.4898045 -0.28113076 0.1066063 0.7020704 -0.8410116 -0.13815668 0.87651014 -0.7515769 0.41349277 0.6718908 0.4950665 -0.9019874
338 -0.42446062 0.85605705 0.65847856 0.46686906 -0.9145277 -0.5381384 0.0346479 0.13367239 0.89733875 0.62507063 -0.428098 1.3168048 -0.1293259 0.35919562 -0.7811445 1.3562913 -0.6392259 -1.0295064 -0.642491 0.4594936 -0.15476681 -0.43505338 0.5338412 0.7274435 -1.0382934 1.1825175 0.011558659 -1.0603117 0.4084468 -0.104843654 0.74479884 0.23358865 -0.06502437 -1.2064995 -0.18604094
1012 0.08642061 0.8836598 0.4476953 0.57683784 0.36079824 -0.39524555 0.49955374 -0.9932008 -0.051381536 1.0868608 0.13597818 1.0969354 -0.20664182 -0.7316873 -0.16467655 -0.38400096 -0.20608944 -0.80410826 0.40511242 -0.33449188 -0.22176607 -1.120372 1.2726104 1.3697705 -0.38742816 0.8908176 0.10205777 -0.7063683 -0.44834685 0.53208876 -0.96629256 0.46366975 -0.09620348 0.2828532 -0.9633403
308 -0.17463684 0.48813108 -0.07267061 -0.12662776 -1.3982743 -0.2070057 0.4042207 -0.3298427 1.375011 -0.17573656 -0.98364407 0.86352235 -0.6471942 -0.22076404 -0.53374946 1.6492381 0.037506334 -0.2309572 0.78497356 -0.57475203 -0.3407568 -0.43690264 -0.26945472 0.7508894 -1.2872984 1.0596886 0.14757515 -0.78819865 0.83841836 0.3517448 -0.17466412 -0.23457815 0.9357585 -0.19663358 -0.31318277
203 -0.92487025 0.8548514 0.70319736 0.04019045 -1.4565982 0.026348636 -0.21320114 -0.31996596 0.25612918 0.59289044 -0.30119437 1.4404918 0.08892134 0.81962276 0.17922537 0.85026306 -0.52189356 -1.3304812 -0.26849145 1.0415438 -0.112225756 -0.5044779 0.43724582 0.5350738 -1.0811495 0.95023996 -0.04423413 -0.54117095 -0.28197494 -0.04357125 0.35780796 0.5601987 -0.56089 -0.79157823 -0.057305016
1317 0.22480547 -0.51075476 0.8047151 0.46648464 -0.53607666 0.11230931 0.46138784 -0.38218445 -1.2981315 0.4504433 0.18040784 0.72843564 -0.63022965 0.26089773 -0.20083545 1.1687593 1.3238239 -1.1145207 0.22285666 1.0047219 -0.044036943 -0.5694454 0.5247257 -0.0074858232 0.18846446 1.6060686 0.47768924 0.13173094 0.12754665 -0.10244981 -0.787579 1.0221632 1.3505775 -0.60315937 -1.1182467
353 0.4495409 1.6402919 0.3147351 0.878401 -0.99449253 -0.6646717 1.2332362 0.24555671 0.6839489 0.2778692 0.46207157 0.4331467 -0.4329101 0.25167605 -1.0658745 1.6067251 -0.43283302 -1.0205266 0.3995887 0.47092175 0.16715483 -0.94735193 -0.036666717 0.71393883 -1.2139838 -0.24105056 -0.40962985 -0.87385404 -0.060300335 -0.11851736 -0.06873008 -0.40837184 0.34378368 -0.63161135 -0.12599976
1376 -0.4678069 0.99476373 1.2012702 0.4155361 0.3031056 0.17368712 0.5593063 -0.57853115 -0.010009191 -0.30588531 0.45582858 0.13964006 0.26102042 1.0837929 0.07610995 -0.2874687 0.011714452 0.14817235 0.579326 0.52079016 1.3376397 -0.49692047 1.0737754 0.1987861 -1.3964968 0.91104525 0.22891593 -0.30742067 0.40563175 0.42662176 -1.5701139 1.1563276 0.2597424 -1.0154481 0.076029144
663 -0.900945 -0.5215061 1.2316214 0.7272331 -0.27793553 -1.0458605 0.46364087 -0.52128357 -0.0010204816 0.12952296 -0.012878264 -0.49069425 -0.959388 0.35077852 -0.22705096 0.27988675 0.56055504 -0.10406018 -0.04148388 -0.6557581 0.6335348 -0.52418137 -0.37826958 0.4508775 -0.3122444 0.6094651 -0.35527503 -0.48087683 -0.6970994 0.5804855 -0.8840316 -0.56263447 0.19159159 -0.15093821 -0.7430934
1188 0.16025126 -0.11388073 0.2236769 0.5351831 -0.28031987 -0.6876148 0.62872404 -0.4311134 -0.92353845 0.03063085 -0.48658127 0.50013596 -0.92902184 0.1585205 -0.0034409112 -0.026755154 0.35688946 -0.6686499 -0.6090943 -0.28582218 0.21433055 -0.80535996 0.06383394 0.528051 0.0044075437 0.8385426 -0.8419516 -0.3454496 0.33408773 -0.57935894 -0.9692177 0.08669789 0.9904379 0.16234602 -0.40137687
631 -0.2697969 -0.48543286 1.1436896 0.42769486 -0.7222269 -1.2683139 0.54558206 0.32919115 -0.18618482 0.55237705 -0.06442489 0.025178533 -0.7544805 0.3429885 0.06941367 0.38849917 0.51679033 -0.12799159 -0.6003252 -0.06634668 1.1652136 -0.6907189 -0.020984773 -0.18797047 0.029224567 0.20309545 -0.80590177 -0.3466268 0.09576526 0.2551801 -1.2298392 -0.28400305 0.79146194 -0.19232132 -0.42793313
791 -0.6538429 -0.6042764 1.2547629 0.7005787 -0.590584 0.08881229 0.13548446 -0.23921373 0.58288324 0.12238207 0.42915514 -0.24496704 -0.5229822 0.2182222 -0.1989748 0.55732095 -0.11798757 -0.051991306 0.45993623 -0.96887535 1.5690414 -0.82463694 -0.034185976 1.0661397 -0.22002167 0.7997652 -0.10544484 -1.8449866 -0.7689233 1.0008905 -0.30731487 -0.1771875 -0.24319525 -0.31296784 -0.6444431
526 0.045618497 0.5142588 0.61278546 0.54311156 -0.28599635 0.845273 1.7720877 -0.21913047 0.40411672 0.48605704 0.6848181 1.0690774 -0.7709967 1.3336704 -0.078500144 -0.5612836 0.8394362 -0.9861507 0.46879318 0.25676966 0.25096378 0.008115991 0.19735289 0.29693714 -0.868276 1.3962264 -0.39993936 -0.48812103 -0.79357296 1.0515391 0.37885612 -0.31111994 1.008354 0.5787739 -0.8256062
881 -0.26738507 1.246218 0.3313621 0.19527747 0.82316613 -0.5888098 0.22103272 -1.1570657 -0.024374086 0.85273767 -0.21954593 1.1328704 -0.4219534 -0.54488516 0.05585396 0.031464726 -0.4771743 -1.5239142 0.4734594 0.3201651 0.30995068 -1.0125155 0.8605369 1.323703 -0.31720948 0.44741905 -0.44161758 -0.5536631 -0.24371508 0.772712 -0.66032284 0.39571968 0.2765425 1.2121814 -0.81059545
1156 0.34538028 -0.47277546 0.69603646 0.6069761 -0.17781034 -0.615872 -0.015817763 -0.19574161 -0.96094185 0.40949935 -0.590674 0.438121 -1.0798185 0.112884 0.021780182 0.22705483 0.48831612 -0.69288284 -0.8032418 -0.47275847 0.8829759 -0.5980891 0.33447206 0.16502196 -0.47071102 0.7358533 -0.80414337 -0.46005085 0.20233634 -0.08150288 -0.7242427 0.29344678 0.6450482 -0.07642974 0.174332
515 -0.40175357 0.33102146 0.13276307 0.76110655 -0.76702464 0.40944698 0.29477918 0.32919726 0.34443536 1.2942384 0.7274724 0.6882034 -1.420716 0.53982145 -0.17216384 0.0624357 -0.52436167 -0.14770858 1.5717419 0.18914737 0.46677643 0.33805174 0.45441014 0.0600686 -0.58344626 1.0762465 -0.5113727 -1.1171783 -0.1331685 -0.6305617 -0.3460384 1.6522052 1.0676916 0.08626159 -0.63725346
1458 -0.3289695 0.27330017 0.951946 0.12888595 -1.0499083 0.7872887 0.44159913 -1.2923186 0.12331226 1.0221485 0.24497388 -0.81226206 0.40259877 0.22753815 0.39552805 -0.16168496 -0.052120976 -0.0766774 -0.108216114 0.5820747 0.56800437 -1.162035 0.4563628 0.7708397 -0.5440407 0.649212 0.3145253 -0.37965965 1.1171153 -0.33744365 0.2777846 0.39560628 1.7500706 -0.7583869 -0.78552175
875 -0.58555764 1.2493342 -0.07950032 0.25750872 0.320192 -0.49782917 0.02584796 -0.57363915 -0.95766723 0.8062976 -0.6086397 1.0882145 -0.4975707 0.053538453 0.8800418 0.15973325 -0.2024198 -0.59003264 0.5210706 0.2319261 0.32443446 -1.212603 0.08220141 1.0172051 -0.41089937 0.41869333 0.12979746 -0.55792326 0.2593926 0.07227437 -0.40462992 0.27744907 0.86068124 1.189315 -1.3487042
956 -0.3222446 0.96735024 0.47839087 0.69301337 0.112585336 0.3195049 0.6406135 -0.80977017 0.1504531 1.2459574 0.24091336 0.82330346 -0.8098373 -0.6604066 0.28739586 0.37790948 -0.37085038 -0.34650773 -0.064254574 -0.13901702 -0.21251564 -1.1699653 1.3067673 1.4906058 -0.41750118 -0.037488244 0.75931287 -0.97825205 -0.36275044 1.0325797 -0.5596 0.81769353 0.17429382 0.5562521 -0.6875822
1293 0.95175874 0.21991208 0.09289029 0.10565905 0.7021196 -0.52678424 0.38303244 -0.54116195 -0.4521263 0.24239616 0.1510863 -0.21300538 -0.9841736 -0.39520866 1.0842934 0.81448555 0.20866226 -0.67280585 -0.18056346 -0.08235965 0.09255511 -0.17917071 -0.67020726 0.9830668 -0.5691411 0.6979199 -1.0328058 -0.7358114 -0.20440827 -0.10278234 -0.74592483 0.63668823 0.93980455 -1.3012336 -0.4583368
1387 -0.38531563 0.55446815 1.0946423 0.97106975 0.20655413 0.53409606 0.84918076 -0.9258486 -0.28137988 -1.5212625 0.6115805 0.884712 0.15399042 -0.3976349 0.31508422 1.2203237 -0.7548572 -0.42014802 -0.3180313 0.47120792 1.1474143 -0.0038554606 0.033225764 -0.008764322 -1.1377875 0.54181635 -0.39444423 -0.6144808 0.12790328 0.014327163 -1.3836206 0.5454793 0.8027002 -0.7343022 -0.7278595
461 0.8805703 -0.2990246 0.44455498 1.1842158 -0.3641788 -0.31588748 0.49343967 -1.2899739 0.8960436 0.853018 0.47463566 0.70408636 -1.6287879 0.13085522 0.20780234 -0.06696759 -0.92889893 -0.73540694 0.569643 0.571105 1.1390625 -0.17074642 -0.45358276 0.18271536 -1.1761893 1.4598484 0.6824838 0.039491165 0.4391834 0.4766642 0.44213715 0.76564556 0.73390925 -0.022311967 -0.16762048
483 0.33405694 -0.1979254 0.16131338 0.4125188 -1.598819 -0.3662662 1.0839517 -0.3038411 0.53745574 1.2224085 -0.18814686 0.4926705 -1.831138 0.28801546 0.10367252 0.15760589 -0.87817496 -0.03929338 1.3221769 0.54692703 1.0023351 0.054699846 0.13003778 0.4944433 -0.6395306 0.8625485 -0.6318645 0.29557505 0.011504927 1.2156193 0.015237903 1.3953526 0.3345892 -0.018015848 -0.27935037
1607 -0.42806247 0.062745325 0.67492247 0.087190576 -1.3503528 0.028518278 0.0856738 -0.24620697 -0.31431475 -0.22615293 1.6448178 0.2014373 -0.55069655 1.1179943 1.068719 0.45239905 -0.26489156 0.13945982 0.3111949 0.6044077 -0.115164846 -0.62339723 0.6639037 1.8162731 -0.5655153 0.6248692 -0.6351443 -0.4125822 0.6816641 0.3074237 0.15574597 0.15610307 0.67692137 -0.7625104 -0.12607789
739 0.41318366 -0.4803006 0.30622706 0.5864905 -0.40152183 -1.040314 0.18238008 -0.06902635 -0.92042536 -0.079392046 -0.6527021 0.43320554 -1.1909835 0.587453 -0.16302878 0.08154669 0.6704825 -0.688211 -0.6327331 -0.33120528 0.7739591 -0.53946745 0.31873474 0.2955749 -0.34788838 0.18446988 -0.4902239 -0.6929849 -0.25516054 -0.018666374 -0.885759 0.027519725 0.73295456 -0.21274914 -0.6071914
324 0.20024863 1.2279191 0.40864304 0.4837544 -1.2462573 -0.25419602 0.69427776 0.19667888 0.6870382 0.40066606 -0.10721294 0.43204072 0.2315841 0.16523893 -1.1947441 1.5123101 -0.61460537 -0.74298525 0.74802405 0.33608222 0.15454756 -1.1887851 -0.9947567 0.32298282 -0.9655144 0.4642006 0.1985496 -0.86413044 0.27815112 0.8743114 -0.32263574 0.35755786 1.1162266 -0.71223104 0.4472354
195 0.3640012 -0.30478978 0.6219601 -0.5805521 -1.0944462 0.22293921 -0.096972816 -0.26385126 0.8520764 0.39715958 0.16360594 0.704408 0.3707355 1.6259739 0.70383745 0.39842746 -0.17010953 -1.280065 0.22149947 1.072134 0.32196182 -0.41577378 0.51211834 1.0198449 -0.76228446 0.95579123 -0.26459542 -0.5632893 -0.35772836 -0.40409014 -1.435684 0.24470751 -0.14129953 0.2839408 -0.31960037
265 0.25139898 0.4581267 0.65866303 -1.1914811 -0.1563143 0.16190763 0.22287126 -0.6830868 0.55709684 0.40584248 -0.0338182 0.5066728 -1.5112565 1.0761065 0.6274733 0.9692581 0.118250355 -0.9238497 0.33716148 0.42011425 1.345579 -0.16456829 1.2920945 1.2508798 -0.007336418 -0.5197361 0.07216193 0.27620366 -0.4203197 0.22571021 0.33935437 0.08938049 1.5012685 -0.3269648 -0.5216533
1525 -0.18015014 -0.01819778 1.1234769 0.2584533 -1.3520224 0.6676822 1.5231074 -0.4471061 0.66888285 0.41733634 -0.2416032 -0.624978 -0.47992456 0.31060848 0.059071284 0.13603266 -0.7942652 0.09038282 0.53037536 0.4057497 0.21259005 -0.703539 1.2010695 0.8666314 -0.26470608 0.85141224 0.4469102 -0.56636614 0.20282513 -1.0386275 -0.39695394 -0.3480593 1.4924498 -1.2083868 -0.79388964
429 0.7802744 1.6440024 0.89594203 -1.0382969 -0.97653896 0.24499452 0.114255056 -1.0515951 -0.032881863 0.13264158 -0.41208887 0.8473075 -0.5322439 0.25853094 0.19871409 -0.009826101 -0.7672571 -0.15360703 0.71866167 -0.3352109 1.6590997 -0.015649568 -0.2688126 0.34316808 -0.94406366 0.88334084 -1.0906614 -0.60925764 0.5940691 0.8266404 -0.87540466 -0.65766394 0.5945345 -0.57288903 -0.04868282
1233 0.06677072 -0.43269956 0.75489825 0.60095453 -0.46564218 0.26641154 0.60876256 0.20930094 -1.5299544 0.359066 -0.14281528 0.043949086 -0.83076143 0.123955496 -0.3094143 1.2127879 0.96243733 -0.9771407 -0.09152626 1.3638391 0.10211796 -0.68250847 0.37084335 0.55961394 0.14775066 1.5224211 0.20738152 -0.226648 -0.14504156 0.23040421 -0.70735335 0.7072218 1.3216689 -0.18807968 -0.7895663
998 -0.15576907 0.60356206 -0.25666502 0.29334792 0.64371365 -0.27441597 -0.47344077 -1.7940491 -0.32009548 0.7692637 0.35723796 0.7073027 -0.9854176 0.3459482 -0.6883067 0.16885316 -0.6011809 -1.2265006 0.20856257 0.4693777 -0.59669733 -1.3718424 0.3133171 0.07412897 -0.013938063 0.4766433 -0.6867924 -0.7364385 -0.11403035 0.3811698 -1.7080444 0.49833485 1.1555464 -0.03954588 -0.33849254
439 0.45518273 1.4271075 1.0346082 -0.6353315 -0.9490582 0.6080725 0.23001255 -1.1308585 0.11154985 0.3679993 -1.0595512 0.6065056 -0.67415935 0.108583815 -0.42251518 0.27264008 -1.132242 -0.48638156 0.60467553 -0.95906216 1.3664126 0.5318753 -0.31740674 0.8353382 -0.8645268 0.54936826 -0.5800144 -1.1930418 0.46659073 0.16453713 -0.740896 -0.5281489 0.8433938 -0.3737277 -0.36067325
188 -0.5332653 -0.1989073 0.599894 -0.6703606 -1.283797 0.44789645 -0.42317742 -0.21931712 0.06851472 0.0136037925 0.7646123 1.0877948 -0.13803461 0.9003327 0.87623066 0.4827459 -0.3071754 -1.4839994 0.055136915 0.6791513 -0.31365886 -0.30323842 0.6935183 1.3146343 -0.8289104 -0.041989986 0.13882536 -0.6920351 0.021247152 0.43855205 -0.6478416 0.50485927 0.17102583 -0.52380663 -0.0055183517
1284 0.5617512 0.46356168 0.027351072 0.3634792 -0.8692973 -0.35652682 1.2937653 -0.805213 -0.4908259 0.06151399 -0.40525475 0.08268849 -0.75228626 0.11639846 0.746366 0.26956698 -0.41512892 -0.95644945 -0.5126222 -0.45101118 -0.07438617 -0.12993449 -0.054803923 0.6134642 0.57786244 1.0082383 -0.2869687 -1.7485131 0.5342186 -0.015167505 -0.43606988 1.4430693 0.65394294 -1.582695 0.1486331
1214 0.35122594 0.1194936 0.33751142 0.41246092 -0.07644198 -0.48108658 0.4109014 -0.4897111 -1.0961344 0.17571409 -0.5223294 0.14337757 -1.2295634 0.3705312 0.11933112 0.19115894 0.29946524 -0.92497534 -0.6908799 -0.1177635 0.2977836 -1.1091188 -0.24974187 1.040796 0.5454803 0.7588853 -0.61838955 -0.35460094 0.09089359 -0.27204412 -0.767033 0.14025967 0.7461173 -0.51897436 -0.14259988
172 -0.4416329 0.15368424 0.50101835 -0.8466923 -1.1365361 0.3331192 -0.6378411 -0.3402253 0.15408187 -0.09511508 1.3798494 0.9562915 -1.1562507 0.4803905 0.8632664 0.4999722 -0.772192 -1.2415624 0.07621202 0.5255751 0.31062174 -0.050587606 0.6976837 1.2719424 -0.4634267 0.15015376 -0.20451193 -0.02035602 -0.07767918 0.33213383 -0.12322395 -0.1900597 1.2141953 -0.15734194 -0.0047990205
1457 -0.2741651 0.34978962 1.0251682 0.16703169 -1.1814127 1.0301697 0.7540121 -0.59881824 -0.015463215 0.79532284 0.36927533 -0.44783303 0.2917706 0.2876819 0.13299422 -0.60177636 -0.16322725 -0.10499309 -0.042233184 0.30647248 0.6692543 -1.4672484 0.38186532 0.89956945 -0.40383807 0.31081104 0.34214458 -0.44868305 0.6439986 0.036481123 0.5089211 0.22889876 2.219765 -1.119131 -0.8407962
1159 0.54825234 0.4270772 1.5109248 0.8779626 -0.2553458 -0.055724908 -0.74455196 0.25293207 -0.29539636 0.5647801 -0.113478504 0.8617739 -1.432457 0.9074184 0.7636564 0.6745306 -0.07235084 0.49474666 -0.21324609 -0.88032776 0.43512562 -1.0697993 -0.25470242 0.571602 -1.8592566 0.9569035 -0.15472561 0.29037845 0.42977795 -0.026560921 -0.97708756 0.15843579 0.48115876 0.29125988 -0.30275723
550 -0.14515185 0.20581196 0.727633 1.0587455 -0.21348403 0.63209194 1.9833746 -1.3505605 0.51441866 0.78477633 0.18188728 0.4735069 -1.1661662 1.2453289 -0.13448156 0.17235221 0.23355657 -0.69698656 0.2034042 0.30552202 0.4950056 0.564124 -0.42329592 0.18087992 -0.30231515 0.6778409 -0.23770733 -0.9962953 -0.58001375 0.8534943 -0.13564835 -0.8502333 0.79931027 0.38821042 -0.5953956
271 0.15517679 0.4188859 0.95086366 -0.35317573 -1.7125647 -0.3899581 -0.36523363 -0.915327 0.555191 0.08631401 1.1944127 0.4086038 -0.4989262 0.3541137 -0.31462792 -0.03269654 -0.6883611 -0.3766748 0.52090096 -0.3114404 0.15539595 -0.7144997 1.0844992 0.99201924 -0.2543339 0.2713552 0.46732336 -0.38414025 0.86004543 0.12483727 0.42430213 -0.008191557 1.8202144 -0.4259164 0.09424238
863 -0.44148567 -0.21209441 1.0834078 0.40790892 -0.14704752 -0.5287733 1.2394537 -0.27527612 0.72763556 0.7102452 0.07904573 -0.023104222 -1.0511283 1.307913 -0.06587692 -0.006929158 0.3859142 0.26628053 0.86532867 0.4440908 0.70099103 -0.0005495577 -0.28360248 0.5708459 -0.17335297 0.6490195 -0.5598885 -0.97339875 -0.43722597 0.9578158 -0.25685588 -0.6365354 0.55848366 0.51978314 -0.31802982
1178 -0.66295964 0.25936845 -0.21911167 -0.7563935 -1.2037687 0.39368907 1.0181814 -0.09014361 0.058610007 0.45533288 0.69415396 0.3438821 -1.2593869 0.27320176 -0.13464977 1.310693 -0.39470208 -0.028383562 -0.50646716 -0.48048905 0.84863865 -0.7795307 -0.608881 -0.056592055 -1.2010335 0.86765736 0.12053207 -0.5461111 -0.60525364 0.06392654 -0.64921033 0.34066147 0.015965253 -0.40355814 -2.125751
440 0.22552636 1.1468445 0.81346136 -1.0495809 -0.86503386 0.3371548 0.5175568 -1.4826252 -0.024418486 0.86397374 -1.0954944 0.28515714 -0.7889635 -0.23976281 -0.5951144 0.32381424 -1.2885368 -0.52575576 0.53530985 -0.67511183 1.451013 0.38681176 -0.1585651 0.32751077 -1.1440574 0.68453526 -0.67992824 -1.2139072 0.25291497 0.105702825 -0.70538825 -0.5870916 1.1174805 -0.2476908 -0.2739636
1008 -0.13631785 0.5134651 -0.103182614 0.3559594 0.953421 -0.72892964 0.24531227 -1.0657392 -0.10247608 1.0910345 -0.07512723 0.9869604 -0.6157237 -0.042706802 -0.5610614 -0.2851216 -0.32125235 -1.5273824 0.43874717 0.76469404 0.18802448 -1.4041944 0.82092583 0.8222127 0.2469003 0.29037508 -0.7524778 -0.4287978 -0.1546795 0.5927174 -1.0728176 0.9167881 1.0183681 0.37538826 -0.44672078
80 -0.58588254 0.39662677 0.81438184 -0.7465191 0.12654407 -1.0744476 0.6899332 -0.8677987 0.48664033 0.22151844 1.0395604 -1.078677 -0.2129649 0.22581191 0.13757502 0.7693587 0.048362065 -0.5617628 0.07799889 -1.2860471 0.4595617 -0.070996076 -0.07345493 0.9231558 -0.5494493 0.49042127 0.15908828 -0.5760325 -0.21305928 0.8988842 -0.326188 1.0790865 1.0413129 -0.10699594 -1.0333898
1542 0.31845763 0.24934006 0.039242107 -0.25919992 -0.9937986 -0.4362417 0.33485657 -1.1275187 0.11799384 0.65227437 0.22741272 0.48266047 0.7945026 0.55581856 -0.04895501 -0.07167691 0.040948465 0.53209233 -0.5084074 -0.23699155 -0.0374571 -0.7107979 0.58860826 0.71109885 -1.9947766 -0.14128073 -0.5237152 -0.8255912 -0.8144548 0.40576065 -0.09445261 0.8054237 1.9661368 -0.06760291 -0.30489662
343 0.9078296 1.7855079 0.7659472 0.66478235 -1.2559143 -0.33436865 -0.118885465 -0.45381021 0.26088598 0.15062077 0.3389186 1.3284194 -0.61826783 0.27016193 -0.9720228 1.6896019 -0.03013614 -0.51749283 0.032441895 0.018346613 -0.11568539 -1.1566968 0.06499017 0.44662812 -0.26203528 0.16001062 0.0088752275 -0.78271765 -0.09755932 0.6657147 0.6486562 -0.09011982 0.5815211 -0.84589195 -0.31425658
977 -0.2974202 0.3534026 -0.5071652 0.624285 -0.38033712 -0.17143333 0.1708944 -0.99999964 0.88627255 0.8568908 0.11392912 -0.15421839 0.23887837 0.21488616 0.18775828 0.53726697 0.11661996 -0.10730366 -0.608686 0.38231632 -0.081025764 -0.31374848 1.4332043 0.3803602 -1.2002966 0.42925167 0.025061732 -0.30064678 -1.5766183 0.61319155 -1.0473105 0.8979434 1.7283689 0.019858118 -0.88528854
1021 -0.1819068 1.2410452 0.6787342 1.2528677 -0.85471576 -0.29560384 0.8709636 0.15069287 0.037969492 0.53709346 -0.7920693 0.3309136 -0.5988953 1.0113057 1.5767034 0.29832867 -0.5187184 -0.6996364 -0.01836262 -0.21651132 -0.100067005 -1.0277307 -0.07717656 0.62873983 -0.814874 0.71803534 0.6386843 0.5626923 0.21238983 0.09030918 -0.7078089 0.89795375 1.153354 1.085087 -0.70860666
1537 0.2355736 0.18506199 0.11817169 0.08261692 -0.46902555 -0.03695509 0.573576 -1.5473313 0.14511839 0.25216067 -0.42108524 -0.008323657 0.7874281 0.00030194357 0.41454595 0.11099686 -0.083089635 0.42954397 -0.29901165 0.2911116 0.61196154 -1.0053856 1.1433889 0.34412056 -2.464801 0.1636046 -0.3792988 -0.57639337 -0.3644007 0.5321586 0.0659776 0.39938757 1.086863 -0.408099 -0.6182842
1039 -0.7304689 0.39332038 0.28396872 -0.23632307 -1.1406931 -0.4125247 0.38717625 -0.6241163 0.64148134 0.15342772 1.1067946 0.08848966 -0.7027847 0.69317555 0.21156862 0.5292128 0.33042017 -0.76569766 -0.7486952 -1.0090927 0.87387156 -0.36648604 -0.30970076 -0.40409353 -1.9026221 0.5395439 -0.42584857 -0.46380657 0.279608 0.8603911 -0.54178166 -0.027039982 -0.4380795 -0.4898799 -1.6189653
840 -0.61251706 -0.42200258 0.4051939 -0.23241718 -1.152566 -1.0097702 0.8406771 -1.311566 0.6318169 0.606029 0.34959257 0.18444587 -0.81274974 0.6626483 0.46941832 0.27874905 0.4179253 -1.028158 -0.49246404 -0.7113114 0.595349 -0.92428565 0.1624063 -0.69208086 -1.048554 0.46706197 -0.05759903 -0.38194755 0.5764453 0.9401113 -0.3703456 -0.42902127 -0.44991934 -1.4815814 -1.1306036
1027 -0.48130527 0.7097556 0.978376 0.20247951 -0.6570758 0.13411826 0.01426257 -0.14760286 0.2656234 0.39260697 0.88111055 0.51976496 -1.3792295 0.38790506 -0.38559946 0.092326276 0.06276527 -0.2100183 -1.1530898 -0.1996949 0.76401544 -1.2895839 -0.8676024 -0.13097237 -1.5602158 0.44854283 -0.67729354 0.1680537 -0.017702682 0.7352594 -0.68378127 0.9652209 -0.24774224 0.0039346498 -1.6531655
1426 0.36011657 -0.15995932 0.4665821 0.53385633 0.31744295 -0.3703395 0.8941913 -1.4783163 0.4061703 -0.75560105 0.4717655 1.0177166 -0.09913435 -0.4168271 0.28762415 1.2722636 -1.1571449 0.08833707 0.21084933 0.55689216 0.061644915 -0.5335961 0.22146435 -0.0031200587 -0.5462759 0.518353 -1.463797 -0.71742344 -0.66573256 -0.15232997 -0.50729424 0.72850925 1.1376498 -0.8855017 -0.71737987
459 -0.015679296 0.33935052 0.9411288 -0.12217069 -1.7367703 0.16612637 0.13861325 -0.85700333 -0.21170141 0.2932031 1.4900986 -0.2714645 -0.0078065717 0.3289413 -0.14343782 -0.034534067 -0.43173584 -0.06997322 0.355903 -0.039200276 -0.048392333 -0.45585772 1.0137687 1.4111798 -0.39304042 0.28267673 0.26100707 -0.13849472 0.334409 0.31636474 0.5444225 0.11429367 1.6626405 -0.3377258 -0.67052466
1213 0.3888523 -0.0919657 0.3697017 0.4455511 -0.116922125 -0.63253474 0.6879427 -0.4380352 -0.9593519 0.042852618 -0.5551379 0.40403444 -1.0639236 0.25824988 0.064341374 0.13713199 0.27894393 -0.91696227 -0.4974816 -0.22443561 0.38162175 -1.0627463 -0.24885926 0.6852281 0.25504065 0.58384943 -0.55120134 -0.19092864 0.28847992 -0.27551818 -0.94466275 0.20028906 0.8413753 -0.051816948 -0.20495953
751 -0.035000976 -0.1337382 1.2102354 0.7148353 -1.0650914 -1.5681338 -0.095020086 -0.058445595 0.4086299 0.4790779 -0.35978508 -0.0566686 -0.59041274 -0.14639637 0.17949735 0.41022098 0.5081837 -0.050041683 -0.48157734 0.7296491 1.5371153 -1.1767682 0.02900847 -0.11445532 0.11713398 0.048050083 -0.42692745 -0.28613335 -0.24006258 0.19190943 -1.1969073 -0.021864919 1.0883818 -0.48304242 -0.49434847
1025 -0.7096371 0.42017692 0.17943843 -0.27646384 -1.0149882 -0.4024712 0.74452627 -0.72593755 0.732311 0.20996505 1.1888459 -0.021140149 -0.66944176 0.020856302 0.28409374 0.51878464 0.28749654 -0.8574151 -0.3400386 -0.7358557 0.7869276 -0.36724174 -0.6312452 -0.11417098 -1.4957545 0.6443485 0.08600768 -0.6444627 -0.17320742 0.30592433 -0.48605222 0.3358595 -0.45827278 -0.8138335 -1.9074454
1230 -0.14766599 0.06834756 0.68589777 0.53988 -0.14172782 -0.3884553 0.4840968 -0.0036872912 -1.1697024 -0.38859916 -0.9279563 -0.11259228 -0.8733379 0.13597016 -0.09687538 0.34761694 0.67513806 -1.0422837 -0.59102046 0.2755522 0.13608092 -0.72843635 0.010485217 0.7629735 -0.18210149 1.0998696 -0.54228806 -0.256186 -0.06408776 -0.38031057 -0.78795874 0.34949586 0.8259994 -0.43212798 -0.2136294
535 -0.13439824 0.08907619 -0.028726315 0.55972034 -0.832895 -0.31031895 0.7820314 0.003740281 0.8765874 0.23991404 -0.1491521 0.04982852 -1.1104342 0.9341443 -0.8274487 0.5945055 0.098716766 0.3474338 1.5583161 0.4601493 0.38159174 0.08005666 -0.20165692 0.38396293 -0.76547384 0.9268571 -0.9969879 -0.96639645 0.12550414 0.8882971 -0.161265 0.9965226 0.97601205 0.8921146 -0.13997339
885 -0.37037784 0.96389544 0.24026912 0.8283996 0.12504382 -0.23880494 0.26193306 -0.51502556 0.61749494 0.8821849 -0.7423942 0.68850195 -0.3258601 -0.057596337 1.2736286 0.49949384 -0.6554288 0.106312886 -0.30546442 -0.4970805 0.022508066 -0.6857971 0.6199906 1.2060227 -0.4668797 0.49913055 0.63584334 -0.38412845 -0.28592554 0.82024145 -0.3647666 0.58341306 1.1282059 0.8608833 -1.0325031
1352 0.5316005 0.48956588 1.5291357 0.4253756 0.39343524 0.43659458 0.74896646 -0.47657338 0.2988322 -0.7903531 0.116175584 0.49333572 -0.16711763 0.7218772 0.06843226 0.56279606 -0.24797124 -0.5048631 -0.28108257 0.5675705 0.45931712 0.16728811 1.1730322 -0.16490002 -1.3042822 0.20359167 0.28657782 -1.6015886 1.2391704 0.062329017 -0.4961141 0.73814744 0.49783066 -0.010598772 -1.3624202
237 0.12263023 -0.083819434 0.88272434 -0.7499961 -1.2649834 -0.005844311 -0.44456407 -0.24053745 0.6238931 0.103427894 0.3759481 0.6496778 0.1112683 1.5941564 0.3513435 0.32170108 -0.3126847 -0.9518351 -0.039160907 0.89629596 0.11976773 -0.7044153 -0.15904117 1.31688 -0.8591299 1.0325712 0.29272673 -0.9523828 -0.50659204 -0.7821371 -1.0591059 0.6157568 -0.18832591 -0.11541834 -0.2488651
360 -0.87096465 1.0147508 0.27026516 -0.23020875 -1.585499 -0.28837195 -0.35829058 0.13303666 0.1590846 0.08977301 -0.5953908 1.3439499 -0.12459378 0.5760088 -0.1883475 0.96171844 -0.75605 -1.0412072 -0.033064663 1.0826098 0.59379995 -0.82763004 1.4811627 0.28924757 -0.33153835 0.7127556 -0.47759217 -0.68706334 -0.40909585 0.45259824 -0.07296624 0.7519318 -0.4444021 -1.2882999 -0.36577192
1605 -0.5173473 0.19015749 0.0028988023 -0.14815436 -1.0648258 0.080628164 -0.044475175 -0.40410876 -0.29835144 -0.4790554 1.6689248 0.420304 -0.5866974 1.5721474 0.8055224 0.42502433 -0.1461641 0.14133522 0.29766595 0.53361535 -0.10314496 -0.9845941 0.2857678 1.8808287 -0.5778395 0.81503606 -0.3549697 -0.49445194 0.60818976 0.52940136 -0.056171823 0.5608117 0.44841883 -0.5000476 -0.37156793
674 0.4857873 -0.06556238 0.19227327 1.0691028 -1.5271425 -1.298593 -0.25043935 0.10426893 1.0255413 0.22304295 -0.02669036 0.87662077 -0.8033324 0.33064196 0.15612365 0.21926104 0.17199793 -0.2073267 -0.20261939 1.4189161 1.630183 -0.9116831 0.55790913 -0.22542815 -0.21599542 -0.20625414 0.4346736 -1.4576988 -0.030848825 -0.09804298 -1.2140249 -0.1096866 1.1650802 -0.24303994 -0.967313
299 -0.51703537 1.0411913 -0.44102627 0.2346512 -0.956266 -0.08761819 0.4517952 -0.111525245 1.2974836 -0.10731467 -0.57138896 0.26936674 -0.8501068 -0.07424206 -0.26306677 1.3498291 1.0865309 -0.14188014 1.189118 -0.0066398955 0.21048398 -0.33073473 0.2138273 0.4093055 -0.8948721 1.187557 -0.41497344 -1.0229262 0.61457735 0.7498404 -0.18952352 0.30570605 0.8606023 -0.24505365 0.32424292
750 -0.01786067 -0.13604411 0.9338321 0.2297465 -0.22427623 -1.312543 -0.29555956 -0.4315636 0.4797666 0.17549612 -0.9506796 0.61758995 -1.1388948 -0.17381391 -0.12352547 -0.2790353 0.6631505 -0.3343105 -0.7937822 0.15185238 1.3421503 -0.70725787 -0.15238129 -0.11364596 -0.16903934 0.15513079 -0.039083153 -0.7931954 0.3989063 -0.27328047 -0.8561279 0.16724095 1.0963267 -0.8021641 -0.84090257
1633 0.3823853 1.0276825 0.7744254 -0.25360706 -1.2188088 0.4023917 -0.8850159 -1.5083789 -0.047008693 0.058067776 -1.0056512 0.59617764 0.10575282 0.84130347 0.11191554 0.91860884 0.10153124 -0.4470574 0.63646805 1.1755553 0.90614116 -0.463046 -0.913931 0.42276025 -0.51276976 1.051643 -0.08114723 -1.1898907 -0.5060343 -0.033575434 -0.5626013 0.2761339 -0.040244237 -0.098478176 -0.32446408
1217 -0.24971102 0.41615066 0.67415375 0.35625163 -0.17966983 -0.21107906 0.40739027 -0.050227385 -1.2387319 -0.048040703 -0.8782035 -0.27000624 -1.1324202 0.46350098 -0.0510629 0.5223836 0.57036114 -1.2016219 -0.5885599 0.10949624 0.36391082 -0.8238573 0.114759795 1.0820222 0.35801095 0.834518 -0.63648367 -0.2719453 0.24426717 -0.4227566 -0.79365957 0.46643093 0.8041871 -0.7648913 -0.23356451
54 0.19881204 0.14817649 0.51380384 -0.7623809 -1.0555503 -0.4985956 -0.17871381 -0.71446514 0.13560748 0.12409808 0.90426254 -0.20284791 -0.3062293 0.07826203 0.09863369 0.2335858 0.015749643 -0.1883085 0.026347252 -0.45198497 1.118944 0.15084453 0.8318258 2.0005288 -0.4683199 -0.018206406 0.4314516 -0.12379896 -0.7328791 0.3168294 0.2028086 0.8980954 1.5819042 -0.27395666 -0.5842437
180 -0.705256 0.35073376 0.639003 -0.6183611 -1.1339805 0.4733708 -0.4299948 -0.3729881 0.24766321 0.552586 -0.3152447 1.4692473 -0.045310866 1.0148864 0.5414002 0.7412742 -0.38999093 -1.1666303 -0.47778067 1.3088776 -0.42899123 -0.7569158 0.31242657 1.1597698 -0.98259157 0.37242007 -0.17511572 -0.82708263 -0.082634635 0.0917389 0.0069946973 0.82304096 -0.19908805 -1.0738431 0.111380965
314 0.45342124 1.445384 0.19078313 0.3307173 -1.2382904 -0.34009996 0.37729612 0.24273 1.1832836 -0.2727848 -0.65742517 0.027295234 -0.71652013 0.053924236 -0.8526394 1.0021808 0.12818027 -0.3193437 1.2294679 0.007052711 -0.16465011 -0.4985218 -0.35349134 0.45449463 -0.8508516 0.5397714 -0.5173777 -0.64857763 0.3282163 0.70377237 -0.023189759 0.3697383 1.0198635 -0.47511026 -0.3653982
200 0.2450738 -0.26077864 1.005454 -0.15592453 -1.512344 0.6758437 -0.009290395 -1.1881857 0.4821969 1.5790855 -0.18800627 0.20111714 -0.17024143 1.315703 0.5374561 1.0655001 -0.51994646 -1.3101796 -0.1604091 0.5048175 -0.06956674 -0.5553192 0.31441787 0.37330607 -0.56496227 0.88457537 -0.7318452 -0.8672575 -0.61491513 -0.7242314 -0.4820518 0.53674346 -0.54250365 0.3252284 -0.36052793
482 0.7874166 -0.0011765133 0.11448696 1.095657 -1.1347928 -0.31253606 0.70907384 -1.2327272 0.50236785 1.1813881 -0.17228279 0.2867844 -1.8529316 -0.009917685 0.2656922 0.39149803 -1.1392195 0.056639988 0.93488294 1.0093153 1.3571289 -0.33364537 0.042543493 0.52253294 -0.85122585 0.9594068 -0.4135063 0.37332037 0.25889587 0.7976524 0.41015443 1.0754265 0.38077882 -0.06835582 -0.15411486
327 0.26934114 0.72011113 0.6440787 0.34473607 -0.7786389 -0.6953611 0.56662196 0.15158288 0.96755654 0.30020297 -0.3720025 1.3425602 0.17037188 -0.35692352 -1.3642462 1.6233318 -0.7365405 -0.978743 -0.0085049365 0.3322807 -0.36494142 -0.68718785 -0.101813786 0.19178976 -1.5082052 1.3271208 0.14993127 -0.9847654 0.13290441 0.54538924 -0.52181786 0.27611807 0.9566798 -0.50093013 0.5331526
99 1.139217 1.0168297 0.93071693 -0.024195675 -1.5034766 0.32499737 -0.2880514 -0.83392423 -0.18459505 0.5471562 -0.70200515 -0.049151182 -0.48753253 1.266431 1.228061 0.96460474 0.3431357 -0.55335456 0.89005476 0.8040604 1.0943466 -0.28436506 -0.29184568 -0.01859762 -0.7075827 1.089732 0.0118602 -1.1820856 -0.7568114 -0.32775557 -0.1991241 -0.036887895 -0.3818126 -0.36729318 -0.7085032
349 0.5324353 1.8278663 0.77382493 0.90744 -0.68985206 -0.6706754 0.7972139 0.13801987 0.71806985 0.2562882 0.61136657 0.84759355 -0.40729833 0.5342738 -1.045929 1.792844 -0.17981161 -0.7631949 0.072104394 0.44971433 -0.22323391 -1.249076 0.17645407 0.5152087 -0.8040416 0.10118426 -0.2659086 -1.0283513 -0.12908962 0.012196402 0.28076828 -0.67806137 0.54111516 -0.70814335 -0.3853795
802 0.2515251 -0.11783001 -0.08516334 0.929622 -0.77429235 -1.0755409 -0.4143827 0.2510996 0.9725354 0.47595012 -0.2617176 0.7050837 -0.6760821 -0.047388576 0.062747724 0.07200511 0.14686747 -0.2911408 -0.34341714 0.83745885 1.9476336 -0.78620523 0.21142964 0.3237286 -0.6091855 -0.017132582 0.6235911 -1.7918566 0.32957447 -0.47579283 -0.874473 -0.17487527 1.5802449 -0.7946644 -0.91136944
420 0.8600938 1.5462422 0.9469385 -0.29361472 -1.3708715 0.25851506 -0.5204065 -0.7580716 -0.13411622 0.12391303 -0.6170811 0.45813122 -0.13547815 0.49218088 -0.5033448 0.6249344 -0.267864 -0.64061075 0.9246533 0.46716243 0.75345916 -0.2533752 -0.82451856 0.15953188 -0.6706702 0.59741473 -0.18435608 -1.1836547 0.064108804 0.41711083 -0.49280673 -0.44049692 0.30516928 -0.6111562 -0.29926142
206 0.3993735 0.9344613 0.76983196 0.33156532 -1.2894998 0.64861846 -0.7276661 -0.94911474 0.65576243 1.1605027 -0.39600214 0.36587057 -0.7918838 1.4054178 0.91836786 1.2455158 0.047495194 -0.8650147 0.032850742 0.6890768 0.74143916 0.014879456 0.19491664 0.24459676 -0.7283598 1.0598071 -0.3217763 -0.7708628 -0.920603 -0.7149298 -0.46353444 0.352405 -0.607689 0.23948988 -0.58467185
1411 -0.652506 0.856019 1.384779 0.70889854 0.4997429 0.22509384 1.0025431 -0.74635273 0.14677915 -1.3867872 0.93647385 0.71832633 -0.3660781 -0.49294108 -0.033721235 0.4675408 -0.7542033 -0.71923065 0.1711268 0.4513966 1.3115231 0.12026381 0.5934052 -0.38635445 -1.2048426 0.54279494 -0.23198381 -0.67528003 0.42515805 0.34318522 -1.0416617 0.3279955 1.1223589 -0.49857682 -0.19222744
1229 -0.022925343 0.04064667 0.72801197 0.32561088 -0.021736052 -0.25123605 0.4912897 0.23994946 -1.3814069 0.012543767 -0.5671651 0.101346366 -0.99883574 0.21916687 -0.12347059 0.52553815 0.6334067 -1.0163687 -0.35457388 0.34240982 0.5146392 -0.5390367 -0.04443805 0.6209729 0.1483306 0.8981246 -0.51070446 -0.2576166 0.25676644 -0.39350775 -1.0188382 0.3489578 0.74375874 -0.4383988 -0.45992732
385 0.68051314 1.2911192 0.9344235 0.056331046 -1.5315796 -0.3430073 -0.43502796 -0.35821208 0.29628968 -0.5061859 -0.0052496414 0.48592114 -0.9369137 0.17122984 -0.9141724 0.9981946 0.046913028 -0.6231074 0.8134961 -0.41877386 -0.4836348 -0.52933306 0.7215117 0.74424714 -0.38031074 0.57351327 0.45875016 -0.57866186 0.22574954 0.93797123 0.5010837 -0.11577312 0.9983078 -0.6284566 -0.045107383
310 0.5146961 1.1818953 0.59671336 -0.3603952 -1.6265999 -0.39900133 0.22241579 0.0730953 0.7857855 -0.44871998 -0.8736585 0.301598 -0.7579362 -0.07055763 -0.7904577 0.93222815 0.19971639 -0.487769 0.8926555 -0.7348108 -0.10604386 -0.13827917 -0.024517426 0.5240737 -1.048939 0.59861684 -0.000725466 -0.76575994 0.5414023 0.54318756 0.45152757 0.027642269 1.1540831 -0.30391958 -0.45153973
174 -0.82952434 -0.15584216 0.82437384 -0.5246742 -1.3638214 0.7834427 -0.4723639 -0.106691234 0.44207355 -0.17857775 0.74713904 1.4089822 -0.71339756 0.59686935 0.70763534 0.11707032 -0.69464594 -1.6231108 0.27399656 0.44117844 0.07954992 -0.4216037 0.835202 1.1808206 -0.6451441 -0.10942776 -0.53489983 -0.5827775 -0.22730051 0.32930213 -0.34312174 0.019348208 0.56234753 -0.490414 0.015783615
1361 -0.20623778 1.434959 1.2688714 0.95518935 0.8547411 0.11363981 0.31054744 -1.0058689 -0.31602308 -0.590745 0.651519 0.24390586 -0.20767346 1.1249065 0.16657351 0.51487577 -0.2720453 -0.35451132 -0.22128613 0.33387545 0.8886292 0.34299564 1.2888148 0.25222856 -1.4299515 0.38434783 0.40552783 -1.1579188 0.48308784 0.17160717 -0.5161984 0.57361454 0.45839736 -0.35885704 -0.25972825
826 -0.7352784 -0.80007863 1.2496188 -0.6507509 -0.10213482 -0.77094334 1.2968456 -1.119483 0.19524032 0.5232104 -0.35712248 0.6788471 -1.2518051 0.41956097 -0.1321218 0.045750454 0.15277196 0.12032913 0.22812644 0.88569707 0.44841343 -0.3527476 -0.33752838 0.80529034 -0.53075904 0.4164908 0.4066373 -1.6297381 -0.020675123 0.74282014 -0.40371907 -0.79482836 0.1398735 -0.3678692 -0.5403244
1484 -0.29935768 0.29240274 1.1435844 0.558819 -0.86021817 0.58644396 1.1851993 -0.70402867 0.52294874 0.63381237 -0.32127658 -0.3865085 0.047450315 0.24184296 0.46438918 0.34240112 -0.7013154 0.040533334 0.8959861 0.5276585 0.3999887 -0.8292152 0.67520195 0.9124529 -0.49030817 1.0713264 0.24523981 0.09439698 0.39839578 -1.0965933 -0.6315294 -0.39639983 1.1943412 -1.6034485 -1.119623
648 -0.8975095 -0.68383217 1.3387104 -0.14209846 -0.40076017 -0.3277149 0.98399705 -0.9541936 0.003244969 0.25479367 -0.24051763 0.6531036 -1.0362452 0.7203677 -0.14253697 -0.23125467 0.19473283 0.22057241 0.5760281 0.9424173 0.5460123 -0.44466275 -0.5273131 0.7210839 0.13263945 0.29339164 0.2877044 -1.6645354 -0.29519582 1.4109803 -0.29769143 -0.61802906 0.29741874 -0.3601731 -1.0586526
882 0.07349264 0.39659688 -0.302058 -0.042469203 0.21998824 0.3054883 0.019086402 -2.0044205 0.84637815 0.9573183 0.81740725 0.7427043 -0.84754807 -0.41136482 -0.43089628 0.7824957 -0.14369649 0.13871 -0.6295434 0.91777885 -0.11624266 -0.7389872 1.157696 0.1902033 -0.5290623 1.1015917 -0.763489 -0.32390714 -0.9662462 0.6774363 -1.2313555 0.65649354 0.6829199 0.12225953 -0.7590793
421 0.9952039 1.7555608 0.5665446 -0.76803297 -1.4104342 0.35794234 -0.37627572 -0.5319313 -0.42833897 0.48156768 -0.20527947 0.476311 -0.28384906 0.52578855 -0.2329893 0.34868804 -0.011040147 -0.6459055 0.90997195 0.47692537 1.2291569 -0.14533843 -0.46201354 -0.23992369 -0.62860644 0.89672875 -0.7538711 -0.9460179 0.15588482 0.4708925 -0.49640048 -0.1021193 0.51694 -1.086821 -0.2517028
827 0.16827443 -0.5100771 1.9226452 -0.18982983 -0.07873875 -0.5247823 1.1927036 -0.48399377 0.6550111 0.7321938 -0.13662335 0.4881419 -1.2211088 0.8068967 -0.1643494 0.4406354 0.6411195 0.12461336 0.5453304 1.1791348 0.23184869 0.07182952 0.10124495 1.3175186 -0.68187994 0.51641417 0.11553333 -1.6347123 0.08889205 0.9244883 -0.35230306 -0.5017299 -0.019568408 -0.24656887 0.05613122
184 -1.1120641 -0.060314458 0.90455955 -0.8809347 -0.9715644 0.7091744 -0.097396515 -0.2544891 -0.19472542 0.70500386 0.070948325 0.92805374 0.405753 1.2821841 1.220012 1.4122586 -0.40925682 -1.3232985 0.21704869 0.27661237 -0.25422767 -0.7720735 0.4602764 0.46175462 -0.8396427 0.012146117 -0.7306435 -1.2391952 0.23469727 0.10240462 -0.16815813 0.62112457 0.5199973 -0.36409217 0.2161942
135 -0.40515414 0.7151208 0.6046258 -0.96482795 -0.60892886 -0.47430736 0.119547985 -0.45378166 0.7215933 -0.04671076 -0.71073925 0.41710684 -0.27321386 -0.13784342 -0.8141409 1.9021566 1.0552644 -0.51621145 0.9433024 -0.02006199 0.5732859 -0.5879345 1.3618176 1.0057929 -0.59177256 1.2045692 -0.28496388 0.08913624 -0.24800271 0.661839 0.5141838 0.3792187 0.8495975 -0.2607481 -0.40814427
1373 -0.30456156 0.49787402 0.9316781 0.5384092 0.41620153 0.5353098 0.83112013 -0.80385065 0.053449918 -0.49026734 0.42215002 0.36401007 0.013679494 0.9182872 0.35403308 -0.20680137 0.12414975 -0.09265957 1.1028566 0.5991118 1.5229943 -0.4114665 0.6143914 0.021637382 -1.3376842 0.15110126 0.6394351 -0.7777616 0.7046341 0.18400803 -1.5563209 1.2400033 0.38055336 -0.8183306 -0.2806371
1441 -0.19250336 0.82741684 0.5917852 -0.08465097 -0.6843504 0.71371174 0.63283575 -1.6140878 0.50617075 0.29522595 0.06444902 -0.7692431 0.46662974 -0.06475432 0.26436576 -0.77047306 0.08816927 0.52704114 -0.30918545 1.0110277 0.7273929 -1.6785333 0.53220195 0.62203395 -1.193619 0.837064 0.17338514 -0.37353513 0.28333613 0.025030412 -0.36705408 0.68509966 1.104979 -0.47710648 -0.94283724
1374 -0.21136326 0.70767504 1.086772 0.5391531 -0.038999837 0.35246015 0.523709 -1.0970978 -0.06666238 -0.4846966 0.32313332 0.4248959 0.15844734 1.1104449 -0.058310848 -0.1995771 0.4730545 -0.088339604 0.727181 0.46321988 1.3537339 -0.5156033 1.0415817 -0.09013706 -1.5600606 0.45346877 0.53273964 -0.22023618 0.45159623 0.413212 -1.7216281 1.2687742 0.13707684 -0.8697359 -0.30460206
470 0.046641853 -0.30465832 0.8400185 0.4680176 -0.34456146 -0.49016297 1.0369817 -0.077864826 0.60425943 0.6469671 0.090797 -0.0454616 -1.0382416 1.3186592 -0.27742687 -0.10310902 0.11588418 0.06909634 1.5408667 0.23605372 0.38412905 -0.10562252 -0.261449 0.14338629 -0.6462655 0.9578833 -0.703739 -1.0658098 -0.18387997 1.1058491 0.35536033 0.09832155 0.7079234 0.58692384 -0.37022763
1466 0.031227928 0.07877605 1.0815309 0.05849029 -1.1702998 1.135292 0.7575715 -2.0188994 0.056692254 0.9933753 0.014808121 -0.1634934 0.27872086 -0.045611367 0.65735096 -0.5656324 0.3473237 -0.20112637 -0.03820833 0.47946286 0.09939434 -1.0676173 -0.5857116 0.5853021 -1.2720634 0.22725007 0.06395532 -0.21658677 0.77360445 0.3473856 -0.19193192 0.39722475 1.8621044 -0.80145895 -0.67524314
825 -0.67495066 -0.5849167 1.3549854 -0.21442913 -0.31813747 -0.62746537 0.9778329 -0.58887166 -0.08108019 0.6568827 -0.089540735 0.3434023 -0.88257223 1.1756089 -0.1314759 0.0019882321 0.038469154 0.31707466 0.72245157 1.1141144 0.2470825 -0.5987281 -0.55566 0.35497785 0.046354536 0.06777937 -0.3555834 -1.0643066 -0.6859491 1.3045157 -0.40840882 -0.7026023 0.96282935 -0.42497003 -1.2638397
181 -1.053421 -0.09894092 0.31139204 -0.9172769 -1.3974057 0.2383123 0.06745169 -0.27918348 -0.24948226 -0.11534281 1.1335307 0.6647565 -0.92709416 0.73599976 1.5035945 1.1888009 -0.57409537 -0.2678966 0.22813492 0.5106671 0.28406513 -0.6828172 0.6992267 1.0681548 -1.2162013 -0.42058316 -0.13572575 -0.5954551 0.3099887 0.4927805 -0.93330556 0.22493654 0.66047144 -0.35305887 0.54882574
1394 -0.32430437 1.2824169 1.0389559 0.5254058 0.43957356 -0.15419975 0.6508462 -0.6032041 0.17880727 -0.57248497 0.3992339 0.14097655 -0.07301811 1.0626981 0.13416547 -0.32182738 0.1323781 -0.29869378 0.5139088 0.8485458 1.179545 0.10728622 1.0079647 0.23404798 -1.532679 0.5501693 0.46383062 -0.50117046 0.3373328 0.23783201 -1.5200081 1.0256928 0.5579535 -0.9773878 0.17882623
664 -0.93960416 -0.22771496 0.91772884 0.2212917 -0.34768194 -1.1178802 0.45608267 -0.48535565 0.25575995 0.20590004 0.29084998 -0.6003454 -0.49553314 0.41088206 -0.26349747 0.53314793 0.69695014 0.014411929 -0.23339744 -1.0001795 0.89401305 -0.41490793 -0.0694627 0.7612398 -0.099035196 0.61000824 -0.2786505 -1.0102774 -1.0705262 0.69556063 -0.21612208 0.11489855 0.12384638 -0.10482429 -1.1061567
955 -0.44642794 0.980775 0.4778689 0.35323882 0.29722506 -0.2165095 0.7607827 -1.1271632 -0.09262963 1.1449748 -0.31647933 1.0097501 -0.27581152 -0.54354686 0.19126914 0.11962568 -0.5399419 -1.0674243 0.4384784 -0.1398417 0.07687943 -1.1386532 1.1357422 1.2911017 -0.17097545 0.04528191 0.4641079 -0.5030836 -0.49697354 0.9188965 -0.9414159 0.67718446 0.16772771 0.5345147 -0.4640397
1377 -0.24028277 0.58031285 1.0860894 0.40400895 0.19872922 -0.14253727 0.6688119 -0.72021055 -0.020328972 -0.5214196 0.61282605 0.27867588 0.09142217 0.91616964 0.09928385 -0.2062187 0.04643274 -0.07417051 0.83378726 0.7099573 1.1692584 -0.46835613 0.7725329 0.24515583 -1.3777115 0.5743517 0.58547336 -0.38202554 0.75780195 0.53853816 -1.6618822 1.329702 0.23258078 -1.068695 -0.039082523
584 -0.54235214 0.022193037 0.13344981 0.36755937 -0.6356716 0.16564225 0.047374614 0.53402555 0.9127007 0.8046569 0.04578485 0.32296842 -1.5342138 0.74288195 -0.11873809 -0.015648609 -0.085547104 -0.22537328 1.4052157 0.29463917 0.52594763 -0.00543497 0.542355 -0.009730407 -1.1228615 0.4255453 -0.8353191 -1.0464362 -0.4361691 -0.67590374 -0.24994725 1.9490534 1.5481793 0.3054967 -1.0435586
434 0.34086758 1.2773486 0.51142466 -1.3348858 -1.2195101 0.6947179 0.3178185 -0.798774 -0.41375777 0.3568998 -0.6471089 0.6042282 -0.70592004 0.00019078118 -0.66869044 0.26928464 -0.01600336 -0.5326254 1.1299464 -0.5633716 0.91053414 0.21644191 -0.32115537 0.3861558 -1.1785433 1.189683 -0.49772105 -0.82200485 0.061335273 0.36264926 -0.571615 -0.81465775 1.0391855 -0.83926505 -0.4434577
199 1.038567 -0.34492472 0.84903795 -0.11619854 -1.1116115 0.66015506 0.3602839 -1.2299054 0.81073487 1.2775344 -0.09672631 0.23443054 -0.5069646 1.9028078 0.061056238 1.2761781 -0.03220933 -1.0417726 -0.31939328 0.42628053 0.34734535 -0.89883715 -0.10966351 0.083411895 -0.46714455 0.47107086 0.4219975 -1.4569592 -0.7765472 -0.78535426 -0.50417805 1.2712458 -0.06922273 0.09729738 -0.07439241
683 -0.79919106 -0.15251572 1.6282579 -0.50592655 -0.21677819 -1.5588069 0.08717085 -1.6356604 0.45064613 0.5022674 0.37556 0.5338217 -1.1156794 0.62090254 0.31291348 -0.3245156 1.0891187 -0.02554721 -0.0014379701 0.4938273 0.8459497 -0.8042328 -0.13764688 -0.5072994 -0.707812 0.82522327 -0.34352922 -1.0765868 -0.27700618 0.34144846 -0.17280619 -0.8162487 0.7152331 -0.54097736 -0.23893288
182 -0.89362997 -0.31091824 0.12566036 -0.87351674 -1.2300624 0.16477576 -0.59905535 -0.27235103 0.09637473 -0.1379658 1.3436725 0.6160544 -0.87483424 0.8866479 0.8124938 0.7185687 -0.55770403 -0.8987855 0.19200778 0.7664616 0.22463453 -0.37111267 0.5745491 1.3114759 -0.82302946 0.06565038 -0.0031934353 -0.43318343 0.09145972 0.20037161 -0.55555093 0.25549152 0.63282746 -0.68773293 0.19498399
26 0.0924685 0.72726935 1.0052577 -0.46662125 -0.19383976 -0.26238173 0.4011205 -1.394472 0.94303316 -0.087329485 0.58499044 -0.22446775 -0.40251312 0.96713626 0.60021865 0.8967539 0.4363848 -1.0925657 0.8346826 -1.3323933 0.9410222 -0.11278406 0.5166815 0.64869606 0.23232566 0.6818237 0.35435808 0.4512207 -0.29303318 -0.09339063 -0.25324717 1.1699682 1.2174082 -0.1938836 -0.9877459
931 -0.3450208 0.43340972 0.7347355 0.7232921 0.5304782 0.113535345 0.54551023 -1.416332 0.38878748 1.5786154 0.7318221 0.6104068 -0.5893606 -0.60492253 0.08892174 1.013199 -0.029184347 -0.48795092 -0.19695273 0.34253037 -0.23596996 -0.4699548 1.894821 0.91152596 -0.8530882 0.99330616 0.13925365 -0.072900906 -0.42750925 0.6869086 -1.0053067 0.18665954 -0.013311982 0.26634088 -1.0161022
3 0.10120271 0.029894276 1.0048128 -0.6604894 -1.3295934 -0.351471 -0.5789182 -0.9454883 0.34312412 -0.18819745 0.82510686 0.33061856 -0.95525473 0.093862824 0.3483497 0.56639135 -0.83866334 -0.7519407 0.26500046 0.13227195 0.25736335 -0.6814314 1.0807658 1.2644604 -0.24049337 -0.067234375 0.7899157 -0.57949597 0.920512 -0.051928036 0.23505905 -0.27291563 1.8752253 -0.3398603 0.24811696
879 0.06519003 0.5352894 0.6413288 0.6965046 0.6097056 -0.1801709 0.5401779 -1.2368838 0.38896424 0.5436715 0.08435673 0.5913224 0.5415208 -0.24729949 0.330016 0.3951555 -0.093871176 0.008116425 0.08362372 -0.48221254 -0.26351267 -0.519776 1.612996 1.2209842 -0.5779398 0.48498496 0.39418772 -0.5295146 -0.8304193 0.50878733 -1.0414128 0.45946285 0.5874066 0.22823161 -1.0197679
828 -0.9430919 0.20588255 0.8775456 0.2537965 -0.29725286 -0.85418713 0.9159814 -0.8821383 0.4816209 0.45757028 0.2559156 0.35632476 -0.6586964 1.5010617 -0.5027157 -0.2581142 -0.7141274 0.529555 0.97820634 0.74388576 0.5391888 -0.117542595 0.13503277 0.64702016 -0.1277227 0.14784926 -0.4806969 -1.1694983 -0.36312464 1.5001506 -1.0200158 -1.1056836 1.2087362 -0.18993782 -0.85731924
1165 -0.26770252 0.9779693 0.25774264 0.010622196 -0.048113618 0.183139 0.86875534 -0.27928984 -1.2125686 0.07235011 -0.2912715 0.980626 -1.1973395 0.18391213 0.6839139 -0.053681657 0.31145802 -0.311578 0.09103815 -0.46570575 0.9280758 -1.9614588 0.26560557 0.041325316 -0.44726744 0.78550994 -0.6259366 -0.5623343 -0.18111598 -0.884088 -0.030274257 0.29475188 1.390743 0.6458764 -0.3223317
1023 -0.46869668 0.71782273 0.7339685 -0.5977599 -0.08390354 0.09543499 0.26764816 0.18884775 0.35224244 0.96037513 0.565787 -0.37734088 -1.3023417 0.60289043 0.19010639 1.276646 -0.42962363 0.09127506 -0.6792204 -0.3951547 0.9561773 -0.55498636 -0.8662587 0.5547627 -1.4262251 0.22519056 0.08295399 -0.21137682 -0.21895923 0.057049185 -0.8760272 0.9130663 0.091039225 -0.9890627 -1.5951546
850 -0.48834598 -1.063027 0.59174645 -0.51940453 -1.069067 -1.1220614 0.35053894 -1.3957955 0.61181283 0.43733382 -0.02553706 0.29466334 -0.8033499 0.06365331 0.25415817 0.18656792 0.94680136 -0.9400645 -0.546896 -0.17640595 0.7673892 -0.6548568 -0.09335221 -0.2029391 -1.2519318 0.71290225 0.14349222 -0.63040465 0.87470293 0.6083214 -0.7905674 -0.8158146 -0.032657616 -0.7717438 -1.023615
633 -0.9002086 -0.43537632 1.4156764 0.25829983 -0.3653889 -1.0817418 0.37464544 -0.58550996 0.14017414 0.6235739 0.12094375 -0.24470443 -0.7245458 1.079427 0.16825674 -0.23942316 0.48887977 -0.016607638 0.07771032 0.10666467 0.7446345 -0.5159409 -0.45510212 0.026664833 -0.13092382 0.46243632 -0.8084419 -0.64500916 -0.7684826 0.6840302 -0.71439856 -0.60337085 0.59407383 -0.11460887 -0.3761931
884 -0.22768758 1.6523614 -0.058082614 0.58560073 0.18081436 -0.16978395 0.5661976 0.29543716 0.28023234 1.1048212 -0.42977467 0.7355157 -0.43625638 0.16074155 1.7367676 0.73085815 -0.6971274 0.036702096 -0.06600943 -0.14658856 0.26997963 -0.7779745 0.24281213 1.0066259 -0.41252056 0.39712983 0.4356142 -0.2392931 -0.15349963 0.8614688 -0.59656477 0.49561343 1.3141423 0.23041306 -0.9282297
27 0.24062373 0.71874726 0.80361193 -0.6881545 -0.28726852 -0.16629234 0.14109835 -1.4217972 0.71573156 0.008588147 0.9416867 0.31117785 -0.49956182 0.95147234 -0.0146550555 0.8868856 0.42105627 -1.2132134 0.70046693 -0.98992616 1.4999125 -0.14153615 0.5141824 0.70328647 0.15139113 0.7431386 0.24453945 0.8957031 -0.25818887 -0.34659454 -0.28930807 0.93892795 1.4497303 -0.16448554 -0.63834167
1533 0.3742266 0.04177249 0.82049704 0.052971434 -1.3135998 0.29852888 0.6906022 -1.7050014 0.006097789 0.6243911 -0.23023035 0.44817546 0.29244632 -0.1253606 0.38961282 -0.50386477 0.12613812 0.6290208 -0.7000808 0.10967406 -0.052586332 -0.6719928 0.17860532 0.6961261 -2.2735908 0.12778659 -0.15849692 -0.6178246 -0.45652243 0.68582386 0.28270835 0.3929005 1.5488937 -0.10670411 -0.46736553
811 -1.430939 -0.0019612117 0.82487774 0.13011217 -0.78838396 -0.6463938 0.5817276 -0.5044689 0.27292398 0.0905829 0.7421621 -0.3356509 -0.5235726 0.43677944 0.43045315 0.7519262 0.3823585 0.044337656 -0.3135573 -1.08934 1.4741812 -0.6062439 -0.22115968 0.09387021 -0.25085312 0.91714466 -0.026790578 -1.1203266 -0.8454444 0.44700283 0.44888327 0.5421349 0.087163635 0.12541163 -1.2864358
616 0.4485571 0.7472803 -0.39484033 0.20632078 -1.1248114 0.06186979 0.78134936 0.14174215 0.9235145 0.19976161 -0.35719678 0.3111276 -1.3419479 0.48162055 -0.023215575 0.7715215 0.6332395 0.051973384 0.9523988 1.170448 -0.041876778 -0.6360241 -0.35528404 0.5816681 -0.6768954 0.5493685 -0.80717236 -1.2844692 0.7255823 0.9433561 0.2718593 1.1360544 1.326495 0.6967839 -0.09657179
1536 0.21237288 0.22381859 0.095484726 0.023222113 -0.83008033 -0.16735947 0.4907425 -1.3380828 -0.25063682 0.7096397 0.035296436 0.34267157 1.0198432 0.18632533 0.46613574 0.15642686 -0.030295588 0.47301018 -0.18971501 0.10111844 0.6215497 -0.77240294 0.76820636 0.48612297 -2.706525 0.23690715 -0.36043376 -0.9782547 -0.6341055 0.36495104 0.06358047 0.17540838 1.1595093 -0.3123798 -0.22491008
1221 -0.324857 0.35822287 0.6467827 0.5137912 -0.20273113 -0.34833196 0.44627103 0.02806329 -1.235834 -0.11590354 -0.7473419 -0.053575512 -0.9149455 0.4131126 -0.10878049 0.5776147 0.79106534 -1.2433585 -0.5688243 0.1561549 0.28229243 -0.81859404 0.10568302 0.9649858 0.15026382 0.79393333 -0.52345264 -0.23813765 0.18519203 -0.60579115 -0.8244948 0.51401913 0.8293073 -0.6198093 -0.27254912
7 0.17269185 0.62017465 0.92467314 -1.2448531 -0.35701472 -0.26190138 0.95090437 -1.1161679 0.8765547 -0.44369665 -0.775242 0.12065007 -1.025143 0.44037545 -0.2182247 1.2778871 0.31275177 -0.86322 0.23081984 -0.10745867 0.9535036 -0.4795033 1.0319399 0.46067086 0.008549324 0.6646786 0.7507081 -0.03202516 -0.8844055 0.4966637 0.5928283 1.012889 1.2974693 -0.15511423 -0.22678673
1028 0.19701011 1.2915864 0.08201008 0.1927021 -0.17517745 -0.06347118 1.2333992 -0.60976666 -1.0662048 0.49216333 -0.65070844 1.1057959 -0.91726184 0.330507 0.8526894 0.55189335 0.1617823 -0.5411272 0.72910047 -0.06532327 0.77485174 -1.4454912 0.06697522 0.07197218 -0.8140372 0.35775313 -0.12538564 0.1530802 0.12848957 -0.7267753 -1.143803 0.24649684 0.9567176 1.0605005 -0.22313894
1353 0.42027152 0.5601585 1.464547 0.1003148 0.081563026 0.79165256 0.7006961 0.1865784 0.009515987 -0.92854255 0.022702143 0.47059062 -0.18093047 0.13131939 0.17722754 0.75815356 -0.21209593 -0.4572649 -0.49339262 0.6889047 1.0435637 0.28678218 1.5086762 -0.17435054 -1.1950393 0.42740592 0.043091495 -1.7729602 0.5598756 0.3372013 -0.53818035 0.61575025 0.73306614 0.4353826 -1.2013968
146 -0.023191141 -0.33482713 0.558759 -0.349643 -1.2534276 0.04408578 -0.43086642 -1.342732 0.5983056 0.19985883 0.8790255 0.13606562 -0.26814407 0.2174221 0.3503583 0.4343028 0.18754926 -0.15302034 -0.15841286 -0.17289673 0.7593711 0.8353056 0.742975 1.6655824 -0.5440023 0.05316039 -0.14026895 -0.16290992 -0.7639875 0.3961336 -0.07213482 0.44544294 1.9183396 -0.5334852 -0.105253264
1575 0.4710282 0.1762983 -0.63084996 0.18152745 -0.88017243 0.022830334 0.52497345 -1.372316 0.64752865 0.2767343 0.1820377 0.7363053 0.6389481 0.14305416 0.4496021 0.37255093 -0.0969422 0.54456675 -0.01916195 0.30361506 0.84186894 -0.39027625 0.72755986 0.583573 -1.6506836 -0.0072260937 -0.7720369 -0.6730439 -1.4948436 0.28245923 -0.238808 0.2048449 1.522612 -0.57148004 -0.70840573
639 -0.8037192 -0.6494151 0.880522 0.7799748 -0.34263906 -0.99721605 0.49964944 -0.060757563 0.09330548 0.3954394 -0.21207635 0.13031389 -1.4323615 0.37193584 0.04571124 0.5153081 0.56458765 0.32226148 -0.74284095 -0.54592204 0.92231417 -0.6851919 -0.29988334 0.1527499 -0.08336176 0.12505187 -0.34960973 -0.31317255 -0.4070115 0.2658745 -1.3012552 -0.0055113793 0.48477393 -0.23059213 -0.68645614
1497 0.21432354 0.033005655 0.9268973 0.87961507 0.47965404 -0.1893394 0.4941961 -1.9575057 0.08151766 0.2549007 -0.30551267 0.18615593 0.8426494 -0.0979117 0.42780668 0.20509565 -0.3853393 0.0738671 -0.112175696 0.49848077 0.43120646 -0.6215921 1.7522519 0.42731458 -1.009144 0.40800053 0.5954447 -0.8522096 -0.009501004 0.1226645 -0.38210678 0.7673534 0.61217856 -0.35971552 -0.64491785
1541 0.37664634 0.21836294 -0.19772077 0.02700188 -0.67112786 -0.03148367 0.28614834 -1.4333795 0.19816607 0.5221052 -0.264502 0.35804075 0.74365103 0.13004048 0.28483227 -0.0048170625 0.113306396 0.429479 -0.15317702 0.32253107 0.7446495 -0.76450926 0.9145694 0.5690274 -2.3386204 0.13104875 -0.6786057 -0.74959797 -1.1724296 0.32475635 -0.031166164 0.21471418 1.1202993 -0.77330726 -0.58953154
870 -1.0137751 -0.6691693 1.4216722 0.45167837 -0.3878335 -1.2162133 0.36872727 -0.32607216 -0.090535805 0.5546486 -0.26571995 -0.20794605 -0.8348452 0.9361578 0.39734417 0.21816923 0.47791612 0.028764963 -0.4165472 0.5161096 1.2921251 -0.35708678 -0.20248416 0.0566512 -0.13604203 -0.0036054864 -1.056006 -0.26902112 -0.22857507 0.45827407 -0.93587583 -0.27465922 0.84860235 -0.13713267 -0.56561565
76 0.0024255014 1.0008152 0.62560505 -0.6412319 -0.3985394 -1.0066171 0.19720931 -0.74230534 0.8515592 -0.37578642 0.50415236 -0.42088038 -0.0893757 0.13813294 0.20834944 0.30626637 0.15623246 0.10463145 -0.4784605 -1.0250878 0.19272135 -0.2638542 0.68132365 1.9294001 -0.17193623 0.57494086 0.20297514 -0.37338984 -0.7668326 0.96193564 -0.24649541 0.47006768 0.6670693 0.12020092 -0.8778978
1398 -0.16225801 -0.16438198 1.0841528 0.63159126 0.10236813 0.14728428 0.76700294 -0.85371697 0.07861777 -1.5934576 0.49817777 0.77111536 -0.21275789 -0.16235372 -0.0332389 1.275747 -0.49914858 -0.4179526 0.36810347 0.9629182 1.4195094 0.031010542 0.34131756 -0.2851574 -1.421238 -0.19302256 -0.014267864 -0.6045104 0.39842582 0.36931327 -0.8043695 1.0050212 0.7442517 -0.2665829 -0.90427977
635 -0.9828874 -0.5894777 1.5086241 -0.27579758 0.060220107 -1.4314792 0.4092132 -0.97009504 -0.1943637 0.38230717 -0.20782335 0.024984544 -1.3348265 0.20134962 -0.010096846 0.07542079 0.6546157 -0.44479635 -0.28915036 0.4032644 0.7979623 -0.542773 -0.23278025 0.51863635 -0.6742899 0.28762582 -0.33926108 -1.0662966 -0.28997782 0.5492393 -0.26343802 -0.67966264 0.07569326 -0.22212517 -0.18339151
214 0.64468455 -0.56107414 0.5470886 -0.50729054 -0.6741241 -0.39524028 0.9192467 0.52289057 1.3117237 0.7612729 0.26127946 0.18922539 0.055011213 0.43055376 0.17127587 -0.058628924 -0.5524468 -1.3475167 0.2482235 0.8648199 1.5842257 -0.7868809 0.37591755 1.7904352 -1.8726754 1.1338333 -0.86151546 -0.39534461 -0.50246596 -0.29485568 -1.0396402 0.35043097 -0.11830035 0.20117319 -0.8925059
491 0.13841735 0.78435904 -0.26918048 0.33429265 -1.0693244 -0.2033951 0.7293571 0.067068666 1.0634657 -0.09480763 -0.23820056 0.16728953 -1.0632286 0.4237935 -0.45869777 0.7387442 0.4195783 0.112997115 1.373435 0.590614 0.07637755 -0.43760842 -0.31082055 0.52646506 -0.71589386 0.81663865 -1.0177833 -1.1066535 0.35808367 0.8247726 0.12188211 0.8662237 0.87268305 0.7146415 0.057671934
1427 0.77371866 0.041488875 0.59466976 0.21867175 0.41194966 -0.15674269 0.708626 -1.6450182 0.082612514 -0.34139723 0.20433785 0.4471899 -0.65087754 -0.33732846 0.41924006 1.3814662 -1.021505 -0.49046245 0.45108214 0.25766674 -0.2856234 -0.77494794 -0.17976975 0.0887597 -0.40679482 0.14521351 -1.8358647 -0.5590344 -0.4916272 -0.14644991 -0.6711021 0.72876024 0.8930482 -0.89922863 -0.6104608
1037 0.42151514 -0.10332357 0.6851949 0.4892382 -1.4087481 0.06469562 -0.03506714 -0.27340317 -0.9941825 0.03032184 0.3093023 0.84906155 -1.8700637 -0.28772372 -0.5159853 -0.022110306 0.6799522 -0.8140092 -1.088759 -0.13407946 0.6995119 -0.7233564 -0.19171762 0.54934216 -1.2074634 -0.05114292 -0.81206673 -0.45044088 0.3578607 0.42019403 -0.87562734 1.0902073 -0.16757663 0.019982474 -0.6372546
980 0.88548416 0.75701797 0.6149793 -0.27013752 0.16854398 -0.686763 0.0024153467 0.2758278 0.1982804 1.2289053 -0.04811958 -0.053331923 -0.037728015 -0.07980553 0.88915795 0.8956604 -0.17542689 0.27109256 -0.32288224 -0.5650548 -0.06962251 0.4327654 0.4456303 1.1472996 -0.52747786 1.2068323 -0.08578852 -0.7654783 -0.8302882 0.92098707 -0.35119152 1.1116279 1.3274673 -0.48797414 -1.4302928
148 -0.074616015 0.16057892 0.60526496 -0.7582135 -0.86251974 -0.22800459 -0.8492997 -0.30198392 0.46920854 0.28116387 0.55059195 0.459634 -1.3717932 0.40769938 0.40279064 0.924742 -0.6534374 -1.0706198 0.7812409 0.18851255 0.47709793 -0.38610584 1.6692628 1.2428788 -0.5159617 0.07401666 0.37225875 -0.6621794 0.08874074 0.25193772 0.5170101 -0.6009357 1.6295543 -0.058980282 -0.17927472
220 0.5189967 -0.17681527 0.5945807 -0.85335803 -1.0768353 0.20028663 0.70141065 0.3283038 1.2643852 0.51455677 0.21638133 0.24274822 0.08708302 0.75008136 0.45863262 0.25740367 -0.5318384 -1.2537669 -0.14180063 0.7503948 1.3144733 -0.5290397 0.51697093 1.2742666 -1.2398859 1.0322393 -0.9426932 -0.36711296 -0.3360699 -0.6033828 -1.5689464 0.6528624 -0.050031804 0.4208974 -0.31699538
1366 0.49673083 0.5154615 1.5613793 0.4556136 0.06612141 0.92698455 0.504373 -0.8421252 -0.19353561 -0.49714103 0.023361376 0.053032827 -0.20733139 0.6387536 -0.20490363 0.47427112 0.22921048 -0.163478 0.16104886 0.031845137 0.74858046 0.17897703 1.4083204 -0.036618616 -1.214771 -0.3183943 -0.024016166 -1.718952 0.9989169 0.21661419 -0.45682016 0.7240146 0.6472018 -0.20367242 -1.5788652
163 -0.058629412 0.3990513 -0.30980736 0.22142817 -0.8869174 1.0636561 0.25371084 -0.6413599 0.12762332 0.24485904 0.8268643 0.85113615 -0.18092126 1.3714695 0.8091861 0.5321128 -0.12658189 -1.6106373 -0.21776526 0.3350399 -0.34551132 -0.17239898 0.16685902 1.0492822 -1.1556102 0.16180393 0.23512843 -0.730595 0.7320264 -0.029486353 -2.365528 -0.6727499 0.8222321 -0.85858935 -1.037765
1606 -0.5056192 -0.096238375 0.0948618 -0.55518144 -1.1144329 -0.04194398 -0.40066266 -0.42362282 -0.4975295 -0.32168916 1.2242949 0.83039856 -0.47639042 1.5718915 0.8163707 0.18355103 -0.48836 -0.057295993 0.35831773 0.16406743 -0.1610783 -0.58006024 0.59839404 2.0114093 -0.65072894 0.677062 0.016083503 -0.61081785 -0.045083947 0.22845969 -0.25046933 0.43933105 0.34325802 -0.56640553 -0.52580124
1589 -0.27829078 -0.2458629 0.13360287 -0.3481944 -0.66156644 -0.42578873 0.27612484 -0.5769119 -0.50710225 -0.6101212 1.4286292 0.775867 -0.8616636 1.9195098 0.3713012 0.39540413 -0.53885525 -0.06373984 0.34786645 0.17479447 -0.8107191 -0.8179452 0.5951894 1.8186044 -0.7492105 0.57301396 -0.059084468 -0.80942816 0.22317435 0.54704493 0.25961268 0.9707234 0.5717086 -0.40800095 -1.0844247
1428 0.8078354 -0.5246682 0.24869384 -0.17103785 0.69050616 -0.2861574 1.0702167 -0.6383036 -0.083314985 -0.12866001 -0.45805058 1.0016096 -0.8141861 -0.026853487 -0.12396027 0.9666716 -0.7707937 -0.99375844 0.636215 -0.2979035 -0.59415734 -0.36487824 -0.10548643 1.0615063 -0.6467517 0.57062995 -1.8288567 -1.1200984 -0.03675037 -0.29411235 -0.97971153 0.70527035 0.60236424 -0.96976095 -0.99943084
1364 0.5118353 0.51950043 1.2310317 0.4638829 -0.20427345 0.71714014 0.10779463 -1.1026403 0.007877932 -0.09506894 0.035769466 0.21934721 -0.11780947 -0.0014674899 -0.17455405 0.16970743 0.31498697 0.38085312 0.42384318 -0.092604846 0.86312103 -0.18080238 1.6820543 0.017908163 -1.299168 -0.06858133 -0.009365981 -1.5687804 1.067758 0.083431065 -0.476235 0.7852878 0.36019713 -0.22634627 -1.8562688
77 0.040761113 0.7045047 0.750933 -0.61369437 -0.39623415 -1.0412401 0.47108483 -0.96734315 0.96514225 -0.17376202 0.8645033 -0.6457356 -0.30363426 0.021153102 0.33466658 0.38664088 0.19372796 -0.29723966 0.03753128 -0.8691051 0.41027766 0.22033197 0.39994338 1.4876254 -0.28425962 0.27795792 0.29956436 -0.3630699 -0.5745172 0.18542168 -0.4458683 0.93968105 1.1414258 0.06785369 -1.0186062
602 0.32035556 0.72593004 -0.115656435 0.42869535 -1.4638426 -0.0011889802 0.4490697 -0.38286203 1.3790289 0.076770954 -0.09030819 0.002410499 -0.7990515 0.044067487 0.04030311 0.38021642 0.7963657 -0.47084382 0.6818931 0.7085469 0.06832407 -0.44135186 0.037791543 0.60051304 -0.5291781 0.33627665 -1.3759313 -1.7724695 0.73835075 1.0702864 -0.2016494 1.0508966 0.87882113 1.0359348 -0.1023845
157 -0.51456714 0.31859383 0.09243529 -0.019131765 -1.2504886 0.7462999 0.8253236 -0.28276157 0.12682694 -0.23142523 0.6881899 0.07305247 -0.16942294 0.9453475 1.1196204 1.0962158 0.19289245 -1.3976297 0.024626609 0.94384897 -0.10853754 -0.30354166 0.51261336 1.4259769 -0.9502036 -0.11133291 -0.07362776 -0.69741327 -0.13787098 0.49940822 -2.503629 -0.846587 0.5269086 -0.17374057 -0.35834053
1357 0.4499486 0.83831406 1.0504756 0.6785601 0.836312 0.16304731 0.68341285 -0.87619025 0.2427073 -0.78375316 0.2144395 0.30225378 -0.27962527 1.136211 0.19163655 0.7936846 -0.2701539 -0.37573993 -0.6643348 0.45025992 0.9172486 0.28357705 1.3261428 0.43611813 -1.657672 0.41364002 0.6658158 -1.384194 0.8294789 -0.17153567 -0.21669316 0.39061084 0.41912594 -0.29193535 -0.76201457
1619 -0.17223357 -0.18385439 1.0545554 0.22237036 -1.8082781 -0.25023827 0.008405445 -0.2560467 -0.292944 -0.2845446 1.8036026 -0.18841757 -0.221937 0.95335263 0.10615329 0.25626177 -0.2148258 0.1705259 0.028509704 0.43188575 -0.26397604 -0.68169755 0.640803 1.6039305 -0.73914987 0.5165866 -0.029686844 -0.29626295 0.6786118 0.47083017 0.25891343 0.5594198 1.4048074 -0.40709803 -0.5367611
580 -0.99962837 0.49134266 -0.21933153 0.2605848 -0.4247779 0.56853855 0.0318876 0.060139168 0.57852024 0.4628153 -0.16621397 -0.47716272 -1.7532535 0.9178513 -0.42442513 0.043627214 -0.59712064 -0.62118757 0.96382195 0.5313793 0.6133741 -0.17771916 0.34852576 0.49827448 -0.9001325 0.28366885 -0.7059276 -1.6262211 -0.31661305 -0.1298776 -0.11176335 1.6871576 1.5021093 0.614509 -0.36096168
1590 -0.30710077 0.04434187 -0.34726754 0.13953924 -0.7443481 -0.18863466 0.19933172 -0.5211853 -0.52375 -0.28457555 1.687768 0.9486644 -0.92630595 1.8469944 0.68463176 0.45806977 -0.47759226 0.30792484 0.38100824 0.22447793 -0.36368924 -0.88145816 0.42265344 1.840791 -0.46112546 0.2961389 -0.15540464 -1.3171185 0.48745075 0.7111558 -0.12883784 0.9733564 0.2884208 -0.16970065 -1.2043344
1397 0.18687022 -0.08996759 0.8630261 0.32063058 -0.08391199 0.22954802 0.86713296 -0.80967546 0.096802644 -1.5618049 0.5126382 0.4164437 -0.39179227 0.31280664 0.12369619 1.243327 -0.48882273 -0.6913698 0.052147247 1.2190007 1.1478995 0.26614705 0.8680072 -0.34199983 -1.3748949 -0.19643411 -0.5449662 -0.6934125 0.57445574 0.19244249 -0.53261185 0.8025124 0.6765038 -0.19391131 -1.4908847
109 -0.78786373 0.99339527 0.6113831 -0.41617832 -0.38712528 -0.46226364 0.33480927 -0.6986451 0.8656323 -0.50796926 -0.42988992 -0.48892188 -0.7413316 -0.29704142 0.41026327 1.823528 0.7042513 -0.71647877 1.133708 -0.39479735 0.85878336 -0.76048094 1.0145053 0.3950819 -0.79236144 1.6612381 -0.478978 -0.03837135 0.82167643 0.8093201 0.29534775 0.96457756 0.5070151 -0.33314848 -0.05629234
1648 0.32035762 -0.4822733 0.32992795 -0.9829538 -1.1339118 0.48952287 0.48902583 -0.3924021 0.48375818 0.67597246 -0.0114517985 0.65300894 0.50799716 0.9400082 0.26810256 0.35093442 -0.1117142 -1.4570049 0.08923489 0.9920171 1.3433303 -0.95979947 -0.22833551 0.8439101 -0.8730049 1.3687482 0.116375245 -0.75371104 -0.6206251 0.020133229 -1.0928977 0.7062846 0.14793287 0.77778286 0.25390494
1158 0.25645074 -0.22679025 1.111364 1.0339947 -0.5425342 0.38590926 -0.86096656 0.17343712 -0.77103853 0.68522745 -0.6660737 0.89973986 -1.3506731 0.10438663 0.47603258 0.4365789 0.61819077 -0.42613292 -0.4463667 -0.62875444 0.55802274 -0.76943594 -0.08619657 0.9292596 -1.3471848 0.66473293 -0.51632446 -0.21809246 1.0134497 0.46511337 -0.8775112 0.39134023 0.52283686 0.2663284 -0.065078385
480 0.54593587 0.16750327 0.61297977 0.73138857 -0.81228495 -0.7545191 0.5513094 -1.3643097 0.06782114 1.2578459 -0.018476764 0.13102315 -1.6183403 -0.18215805 0.39483258 0.66261566 -1.3137506 -0.028606871 0.5211868 1.0484426 1.5811523 -0.2575635 -0.11225543 0.34759358 -0.89002776 1.086941 -0.1868142 0.5401187 0.15465394 1.0205046 0.5085903 1.3310077 0.32802433 -0.19059496 -0.18845439
471 0.5717976 -0.41549236 0.35421532 1.4888692 -0.016319321 0.028545175 0.35500395 -1.0590861 1.1727716 0.51192963 0.2648567 0.5515626 -1.3579639 0.6617959 0.312484 0.14598751 -1.0062671 -0.93314433 0.23280616 0.5592246 1.221287 -0.23529509 -0.49175653 0.58744365 -1.110824 1.6678101 0.43112388 0.51416785 0.45486468 0.52658045 0.39188716 0.769628 0.8888941 -0.3191387 -0.46380714
687 -0.3272377 -0.15074979 0.9153069 0.520162 -0.22681813 -0.7367127 0.51039094 -0.23749381 -0.49211562 0.14439973 -0.08505492 -0.22161932 -1.2754579 0.14802408 -0.50315076 0.49584687 0.8574961 0.20459983 -0.24452083 -0.7153459 0.6937263 -1.0124358 -0.37566522 0.15447758 -0.1884911 0.25357807 -0.3552876 -0.4316544 -0.20934719 0.4152293 -1.4382097 -0.5084822 0.44891998 -0.25542018 -0.59364235
1297 0.84576494 -0.27965203 -0.014479373 0.16493268 0.3257735 -0.25563988 0.6386199 -0.6854613 -0.57194126 0.1338775 0.11999595 0.026246533 -0.80051434 -0.5811086 1.2388533 1.0302786 -0.20507267 -0.43704054 0.6372579 -0.15386581 0.019318009 -0.47229314 -0.37310666 0.5340884 -0.4226105 0.5970446 -1.4628546 -1.1629578 -0.46926597 -0.09864454 -1.0842111 0.68199444 0.89186203 -1.3602619 -0.58678514
107 -0.66576344 1.1797496 0.35433963 -0.41816884 -0.52530056 -0.1807305 0.015303038 -0.5318467 1.1237983 0.3369952 -0.6408958 0.0033016782 -1.1336954 -0.22619158 -0.5675844 1.2596412 1.7065591 -0.19094518 0.92484254 -0.16451317 0.5362007 -0.9135861 0.91757625 0.64484334 -1.3716036 0.9598579 -0.2230096 -0.21870679 0.31229043 0.9863218 0.13754234 0.79376984 0.73631513 -0.5924335 0.31814212
569 -0.86377835 0.4077482 0.0005246647 0.5045629 -1.2362067 -0.22933389 0.4660818 0.624099 0.22481653 0.6305892 0.17407337 -0.11291357 -1.5686535 0.31016484 -0.2573074 -0.08270933 -0.68119764 -0.025995739 0.9975685 0.5759615 0.08951874 0.6608857 0.36938688 0.21590704 -1.2190807 1.3107294 -0.40686736 -1.3427409 0.1000573 0.5960954 -0.7420754 1.4646891 1.0443445 0.48709854 -0.35064209
703 -0.64742875 -0.070705354 0.71784806 1.4263988 -0.4485001 0.7690353 0.14427073 -0.20914184 0.18465406 0.16575508 0.7338753 -0.028505703 0.1092202 0.26930654 -0.058771133 1.2901169 0.54175764 -0.11996316 0.64832747 -0.35494712 1.9823729 -1.1397644 -0.13610333 1.4936898 -0.25568706 0.7715244 -0.07933934 -1.9119405 -0.8515847 0.81278473 -0.32338426 0.13048004 0.09349358 -0.33077753 -0.36684904
1321 0.072382964 0.22779858 -0.052690897 0.88139564 -0.21964747 -0.36886224 1.1886351 -1.0488738 -1.3386917 -0.27089518 -0.3702842 0.7170116 -0.29912847 -0.17415535 0.19709459 -0.038418166 -0.4744247 -0.56848484 -0.8170539 0.017524539 0.5702896 -0.3077139 -0.23180078 0.46833256 -0.19074976 1.0831174 -0.17133467 -1.5658363 0.23272808 0.82799953 -0.50582343 0.9577268 1.1248249 -1.1138377 0.672142
110 -0.6330816 0.8919463 0.5095845 -0.4872923 -0.6252763 -0.40378574 0.43204656 -0.7160375 0.53692186 -0.11969158 -0.6100174 -0.1871265 -0.3868726 -0.33416066 -0.18619044 2.2493382 0.93129253 -0.8803643 0.8031751 -0.0020086493 0.82303107 -0.69621176 1.438197 0.8234529 -0.40131792 1.6347471 -0.65347457 0.15782814 0.3957964 1.0864995 0.63640416 0.31701538 0.65957946 -0.12635407 -0.5091225
1264 -0.08996418 0.66976815 -0.09205369 0.80604583 -0.22632025 -0.30258885 1.4504114 -1.4498926 -1.1352116 -0.07858435 -0.3257582 0.2729816 -0.57488984 0.69928104 0.5047703 0.078181244 -0.4438906 -0.30271116 -0.78634614 -0.117417865 0.55543065 -0.11104312 -0.37492096 0.5866736 -0.35052213 0.91853845 -0.24143255 -1.6724364 0.48887485 0.9175468 -0.464247 1.1959243 0.739994 -1.0892487 0.9297928
197 0.3728991 -0.21669208 0.43472612 -0.7470116 -1.3732393 -0.091768056 -0.054155476 -0.35275844 0.7257129 0.88395387 -0.23835984 0.8274234 0.1707084 1.7232838 0.40071803 0.19327678 -0.10322964 -1.1021501 0.22247705 0.4300976 0.07411554 -0.6874908 0.3887807 1.197106 -0.51384705 1.4036531 0.20879775 -0.85537606 -0.63639456 -0.5651421 -1.0961856 0.62029415 -0.30040333 -0.06299398 -0.04685095
1359 0.072471604 0.5424123 1.226531 1.0499648 0.8418324 0.3375384 0.3583342 -1.2189327 0.1203489 -0.8189839 0.14084649 0.08552155 -0.11205791 0.5906422 0.32272798 0.33734992 -0.21871161 -0.14993772 -0.67514926 0.5199161 0.77341926 0.2202125 1.5886297 0.55724 -1.2497631 1.0815228 0.5001743 -1.2965677 0.60459435 0.13699259 -0.26337042 0.7960592 0.39878303 -0.23383594 -0.48510572
355 -1.0751485 0.16106865 0.5154435 -0.31369385 -1.6099236 0.5742085 -0.9858916 0.22843666 0.4471154 0.20556636 -0.09580578 1.4616914 -0.4936675 0.12928233 0.717569 0.9587809 -0.9317464 -1.1574631 0.69688153 0.428323 0.010536465 -1.1801913 1.3834596 0.3110242 -0.27528313 0.31913304 -1.1487166 -0.36525005 -0.2499432 0.50453144 -0.46293426 0.38961124 0.6346435 -1.0312577 -0.60561633
297 -0.7765501 1.0722927 -0.7289383 0.29306886 -0.8059542 -0.16775718 0.59545374 -0.25078824 1.6359602 -0.18845129 -0.31871417 0.24732296 -0.48615745 0.13497974 -0.18225032 0.83773315 0.8265846 -0.46200934 1.1417092 -0.23342401 -0.0027376735 -0.7409596 0.2786265 0.73325026 -0.6753863 0.8225299 -0.47560936 -0.8981149 1.1331462 0.96884954 -1.0545913 0.36798477 0.9046852 -0.4494361 -0.017325442
189 -0.33012655 -0.45716086 0.2359949 -0.29215634 -1.289374 0.7880573 -0.0936498 0.10977111 0.37141097 0.16721207 0.5335014 0.72029185 0.07296215 1.2174284 0.8116404 0.47350946 -0.32674086 -1.7086854 0.24152735 0.63163865 -0.06109594 -0.0061124642 0.63257337 1.446168 -0.8417881 0.29473713 0.1818208 -0.98895055 -0.1967817 0.2720188 -1.3694913 0.047668003 0.27249688 -0.3111328 -0.09001567
345 0.44699264 1.8925425 -0.18557025 0.61184597 -1.4627022 -0.7110099 -0.26112482 -0.46655494 -0.21326824 0.3102428 0.16535918 1.7639706 -0.3758319 0.481432 -1.3349688 1.4865296 -0.54664236 -0.5388408 0.21993193 0.44202432 0.4377665 -0.32921043 0.21444775 0.82570034 -0.44725427 0.096470766 -0.13922752 -0.678072 0.27023622 0.38965678 -0.08308786 0.34345484 0.20185193 -1.4756122 -1.1058403
173 -1.0259309 0.14205757 0.58520514 -0.1967013 -1.6640729 0.8287292 -0.6211904 -0.029188922 0.7388855 -0.09901063 0.097055346 1.4586269 -0.7280746 0.6767412 1.0293258 0.29661718 -1.1059431 -1.1938071 0.1358276 0.60362136 0.13075554 -1.1793469 1.0275285 0.70401794 -0.38705495 -0.10163652 -1.185497 -0.33127013 -0.39521044 0.4453986 -0.288826 0.041831065 0.60625356 -0.3839525 -0.2809114
1098 -0.40761045 1.7068524 -0.29414955 -0.02793552 -0.37422028 -0.36100602 0.6903994 -0.84990716 -0.6303569 -0.27665746 0.50364435 1.4130534 -0.94982016 -0.0856346 0.03957923 0.049541175 0.35801765 0.20333746 0.06080935 0.06415751 1.2206923 -0.96911013 0.21032245 0.7912853 -0.43065262 1.7472438 -0.48332065 -0.742022 -0.0138755115 -1.3022118 -0.15055212 -0.16652025 1.461318 0.96128434 -0.84384966
1153 0.67610574 0.7859506 1.6671529 -0.0497618 -0.12160548 -0.5281932 -0.69088674 1.0111284 0.07495199 0.4759868 0.3092479 0.5898464 -1.4578058 0.5643628 0.8140221 0.86975604 0.0059776558 0.56147987 -0.012888543 -0.6958248 0.32462224 -1.2007178 -0.4806608 0.5506827 -1.7074463 0.8852455 -0.2160543 -0.08850872 -0.035866782 0.7190612 -1.63207 0.4235613 0.3970634 -0.2825242 -0.24263652
1409 -0.65484655 1.4718633 1.427639 0.88039184 0.57407415 -0.040749863 0.6612901 -0.562492 0.038882986 -0.4168805 0.89759463 0.14386575 0.067094095 0.4822918 0.42204523 0.15435523 -0.27970624 -0.6680936 0.13453135 0.76811737 1.2304785 0.24825802 1.0894976 -0.2223318 -1.2378755 0.51073855 -0.085379526 -1.1872334 0.22152065 0.053438094 -0.8991985 0.7591007 0.38395384 -0.7333725 0.15965888
196 0.4872205 -0.1420892 0.062145494 -0.7759535 -0.9764515 -0.0018617421 0.43758476 -0.43135792 0.8838065 0.85494673 0.18210118 0.7849482 0.086318165 1.4261764 0.67644 0.29663748 0.11409244 -1.2621746 0.0030458022 0.7123319 0.5631435 -0.9505798 -0.36544874 0.83126205 -0.6402039 1.391755 0.29833555 -1.1483865 -1.0968584 -0.3214838 -0.9550711 0.86825013 -0.09327141 0.5517987 0.018565232
227 -0.47466177 -0.21597995 1.3211284 -0.20830356 -1.3519274 0.6596065 -0.44778866 -0.8072608 0.09157156 0.7056916 -0.8795161 0.28644377 -0.12980923 1.2371542 0.6808205 0.8812729 -1.6720996 -1.4094881 -0.23219413 0.66227484 0.38047317 -0.9524529 -0.07978542 0.067344025 -0.31444386 0.5250529 -0.17790906 -1.4849105 -0.14720848 0.07958813 -0.43380815 0.90005976 -0.2599712 0.12669533 -0.54749316
641 -0.5446223 0.2396394 0.93127567 -0.017574828 -0.36308715 -1.5388186 0.2699429 -0.79605967 0.3904753 0.0738387 0.32597172 -0.8976043 -0.31584048 0.52097416 -0.10291571 0.663601 0.39916387 -0.011022683 -0.18819559 -1.1538078 0.9324985 -0.4530277 -0.02273382 1.2715802 -0.04072844 0.41980502 0.012470801 -0.88420326 -1.0641801 0.786093 -0.26236737 0.32644787 0.31211674 -0.27844086 -1.1785258
315 0.073573984 1.0156969 -0.12524495 0.38029525 -1.2210401 -0.14336932 0.62866503 0.20099215 1.5341467 -0.5181816 -0.7076977 0.4649884 -0.59448844 0.30639714 -0.6578281 1.0615952 0.36662722 -0.3996885 1.1183585 -0.28080118 -0.25801244 -0.41589305 -0.2349462 0.8541713 -0.86855423 0.24279925 0.05425999 -0.81927115 0.58487576 0.8214705 -0.82101583 0.22011836 1.0441993 -0.82523733 -0.36627913
1276 -0.022004299 0.023105927 0.5353787 1.206955 -0.5539148 -0.5833013 1.1650807 -0.9303345 -0.9737819 -0.2625986 0.21700846 0.9792262 -0.24062188 0.0740358 0.2857633 0.34455374 0.6702243 -0.630297 -0.641846 0.10745297 0.508354 -0.19034708 0.15914766 0.42176488 0.64207196 0.99376744 0.029803958 -0.686353 0.40624925 -0.071663 -0.8677548 1.0994414 0.41428038 -0.7055645 0.07710562
281 -0.7027416 1.0468987 -0.5152815 -0.4806061 -0.6950134 0.72092164 0.41073152 -0.35022408 0.96355265 0.8492065 0.034806293 0.35098296 -0.63485265 -0.070658274 -0.034178536 -0.09816081 1.0428622 -0.5018452 1.2386853 -0.74448496 0.64774877 -1.0895121 0.5803918 0.5605496 -0.6731753 0.85828036 -0.8651965 -1.402073 0.34596896 0.5679077 -1.4570735 -0.11357865 1.0388461 -1.5223045 0.04332292
294 0.6058359 1.6746166 0.71093893 0.13749617 -1.2542086 -0.17598031 -0.4630591 -0.23376511 0.30526486 -0.26723838 -0.046034586 0.38793632 -0.41887888 0.10499569 -1.0985274 1.1317829 -0.28817248 -0.7039042 1.2346908 0.30134207 0.23514657 -0.614106 -0.65474963 0.36731532 -0.6198351 0.2825498 -0.15529406 -0.8200193 0.42248842 0.74894595 0.06263301 0.26194653 0.4847779 -1.0156235 -0.38099283
1634 0.93922395 0.6422832 1.07183 -0.021166181 -1.6810514 0.65408206 -0.2304031 -1.2411718 0.21038426 0.43590543 -0.4052337 0.7997239 -0.49607372 1.0063419 0.5301294 0.7442881 0.32335573 -0.43806574 0.089239895 0.6988056 1.0420427 -0.16929121 -0.51874644 0.3221362 -0.5972994 0.76295704 0.5195212 -1.2819284 -0.86681044 -1.1066883 -0.37146086 0.5975161 -0.16876017 0.05997161 -0.40119082
346 0.09905506 1.3351814 0.40194312 1.007531 -1.0027959 -0.76064384 1.0997756 0.65149415 0.41194504 0.3199488 0.094118215 0.70431876 0.35258505 0.22356308 -0.9723384 1.8347809 -0.52802724 -0.97823083 0.29490277 0.46858063 0.18961003 -0.6847528 -0.0839567 1.1245571 -1.186268 0.3777891 -0.37989423 -1.086048 -0.1726112 -0.30992734 0.09955915 -0.053420015 0.72900707 -0.44512153 0.3569219
207 0.138862 0.8078545 0.7228339 0.03513573 -2.2874837 -0.21895015 0.054191694 -0.34962112 -0.16719995 1.0000198 -0.6281122 0.89561915 0.37308717 0.8185479 0.7992216 0.683868 -0.18625477 -1.2166561 -0.5079863 1.4787375 0.06122057 0.19409174 0.40937027 -0.15347454 -0.8938109 1.8120981 -0.27926788 -0.7311097 0.10638755 0.3544605 -0.17397207 0.14278473 -0.2618097 -0.65935457 -0.40773693
1481 -0.9302005 0.58472973 1.1016876 0.097805694 -0.6133304 1.2035444 1.5001165 -0.6308017 0.7568933 0.15946576 0.016502095 -0.32055068 -0.0986819 0.57086813 -0.4454293 0.10332164 -0.7370808 -0.26857817 0.58837676 0.63642895 0.43410367 -1.219953 0.37920827 1.6522533 -0.5915174 1.1873153 -0.17184056 -0.27104482 0.14948113 -1.2061943 0.27449024 -0.100066826 1.3755932 -0.4250347 -1.3480867
1379 -0.29375857 0.80888087 0.8119524 0.62579274 0.015260159 -0.052678127 0.8975527 -0.83367145 -0.23984836 -0.24938045 0.5759227 0.281061 0.2585276 0.95602816 0.31943953 -0.23326264 0.05189906 0.4999561 0.6991835 0.5440715 1.1323274 -0.3676908 0.9330412 0.0047691194 -1.1681734 1.1360892 0.63023716 -0.3542864 0.62242556 0.53273344 -1.5249534 1.2621799 0.415174 -0.92909575 -0.1417622
546 -0.19777274 -0.095864125 0.47743252 0.4285957 -0.63019764 -0.3246502 0.9437048 0.15211822 0.66569525 0.61115205 -0.1647388 0.04157814 -1.1386124 1.24794 -0.532289 0.277736 0.26532006 0.17746527 1.7055404 0.32685912 0.3831982 0.06515299 -0.1926528 0.23624405 -0.7141301 0.9085641 -0.92083865 -0.98995715 0.12827878 0.9214296 0.20294854 0.5633331 0.79918194 0.74562424 -0.4163403
1034 0.18221843 0.33200324 0.40753147 0.5954755 -0.13167226 -0.22190699 0.515302 -0.3113782 -0.9496109 -0.21198237 -0.3946464 0.72819275 -1.2966388 0.4130713 0.6480288 0.16345522 0.5144587 -0.29568788 0.3667194 -0.8143801 0.33477113 -1.9298055 -0.06760764 0.25845906 -0.6658949 0.6403814 -0.058527898 -0.28873476 -0.16535969 -0.8197689 -0.7846446 0.4734012 1.4013587 0.5216594 0.37414306
815 -0.88784367 -0.49765214 0.6788935 1.1588476 -0.3295865 0.15679201 0.20291048 -0.5500434 0.9501538 -0.18641646 0.26360932 0.17652173 -0.610362 0.65946126 -0.15270662 0.95176774 0.11343331 -0.39646852 0.451234 -0.80901533 1.9244908 -1.3325199 0.12072964 1.1973561 -0.41083997 0.5430956 0.112237744 -1.7774537 -1.118861 1.0947609 -0.18733335 0.3451075 -0.36462918 -0.36630774 -0.07500381
198 0.95767033 0.033971187 0.5195518 -0.7293482 -1.0405827 0.5002711 0.00889601 -0.567358 0.6847628 0.63725466 0.47211516 0.9395805 0.0647878 1.0950772 0.47643423 0.17933244 0.33748016 -1.2165406 -0.22311527 0.48791784 0.850343 -1.2009277 -0.34181666 0.59299517 -0.5359315 1.38434 0.7310991 -1.4722328 -1.0470675 -0.63855237 -0.8845672 0.8560616 0.16022408 0.55856925 -0.23511654
1408 -0.32930115 1.3642263 1.5021846 0.99606496 0.32851928 -0.12864397 0.6391671 -0.2703882 -0.0054839803 -0.18949245 0.78403914 0.18869431 0.14252622 0.66963506 0.3719067 -0.09614827 0.017941542 -0.31182265 0.4579081 0.8991486 1.3725795 0.014305707 1.0417645 0.26041296 -1.4243296 0.48622075 0.08921798 -0.40600908 0.27724886 0.3056194 -1.3779072 1.1793897 0.3696021 -0.7031784 0.33441603
201 0.50630474 -0.24803141 0.46280003 -0.2340882 -1.6123421 0.06173408 -0.21440162 -0.5476251 0.80392295 1.1959348 -0.3425096 0.7752815 0.22915365 1.5246139 0.5557732 0.7502526 0.012355601 -1.2297083 0.18262757 0.64261305 -0.053434346 -0.3746326 0.51311505 0.7391825 -0.65553784 1.157432 -0.41722587 -0.4961109 -0.38262102 -0.4269104 -0.9135419 0.5053314 -0.5377889 0.0143586565 -0.3398216
737 0.7591234 -0.6622303 -0.49068 0.7436867 -0.6630283 -1.238895 0.27895734 0.25034463 -1.0794761 0.2390792 -0.8792546 0.39167795 -0.8238882 0.98399335 -0.35953972 0.18252687 0.473817 -0.96810526 -0.51771826 -0.2393591 1.1536391 -0.6011695 0.35328287 0.5063782 -0.8125379 0.22938842 -0.11763776 -1.0664352 -0.11420112 0.33163106 -0.5347956 0.07486041 0.9521441 -0.21094404 -0.8043344
1305 0.12548353 -0.08567016 0.6413978 0.7405353 -0.09223751 -0.48983684 1.1521875 -0.7719721 -1.40597 -0.48447502 -0.14259505 0.84745294 0.05522491 -0.14156887 0.26546293 0.19494817 0.059664294 -0.54398996 -1.1092138 -0.08635486 0.49357688 -0.3720448 0.05352583 0.21831536 0.14334528 0.7451677 -0.3259638 -0.9644256 0.19203372 0.24268873 -1.0013918 0.8319507 0.8139482 -0.7235013 0.053190544
1372 -0.46465418 0.62056166 1.2508594 0.35798633 0.023373896 0.08673013 0.6413735 -0.7846651 -0.01224311 -0.51464236 0.52431166 0.50401753 0.07516959 0.8728819 0.14760219 -0.29478386 0.03179705 0.15350749 0.86445844 0.59555435 1.1764575 -0.6165475 0.8038522 0.0035211416 -1.4330559 0.6918532 0.71684664 -0.42403483 0.63635254 0.3945844 -1.541114 1.5007223 0.22226276 -0.88227326 -0.1685405
293 0.37564483 2.264361 0.09174566 0.60878444 -1.1513624 -0.50634766 -0.3630099 -0.17408979 0.0418593 -0.23109555 -0.011632913 0.68001884 -0.09207163 0.29668158 -1.0282981 0.95813906 -0.4730855 -0.92290676 1.097557 0.51248324 0.28472131 -0.5458394 -0.36282095 0.23422708 -0.7288657 0.40924272 -0.6168277 -0.56441784 0.24218807 0.76161176 -0.067611024 0.17283228 0.64230967 -1.162006 -1.1462858
1163 0.37736747 0.47204906 0.75598913 0.26482412 -0.8820218 0.2949737 -0.0009100845 -0.5136405 -0.4128596 0.35606128 0.7602667 0.5153214 -2.2140794 0.51808494 -0.5272178 -0.1424591 0.20675552 -0.96133024 -1.7211629 -0.33587307 0.6901169 -0.7132736 -0.19081227 0.33544007 -1.2034762 -0.09154819 -0.70085144 -0.32149884 0.21686558 0.2695111 -0.37879294 1.1443417 -0.10945433 0.08789835 -1.6070396
1480 -1.0977829 0.57807535 0.63337183 0.30173802 -0.68433726 0.8599193 1.3305595 -1.0772156 0.77541316 0.34693563 -0.3134792 -0.6810702 0.011650043 0.19144094 -0.15720856 -0.1921004 -0.43425623 -0.53574383 0.46142983 1.1732491 0.69124603 -1.4553689 0.44065678 1.2795712 -0.63449705 1.1396027 -0.3953622 -0.15198502 0.62150097 -0.6894195 0.08786849 -0.17017627 0.925572 -0.57547486 -1.4887339
1454 0.50088197 -0.24283728 1.0283682 0.18613856 -1.5543774 0.7304668 0.8322234 -1.6374756 0.016174214 1.0665221 0.1256196 -0.14764617 0.52243596 -0.26218468 0.112768985 -0.7772414 0.36233616 -0.06688025 -0.053684264 0.4328073 0.10700662 -1.0359709 0.008700543 0.83471704 -1.5668674 0.46294355 -0.22263747 -0.3706229 0.6029563 0.35283032 0.016785808 0.19665745 1.6426747 -0.33297092 -0.3900077
519 -0.031241186 -0.21928346 1.0189699 0.5121234 -0.5737391 -0.15981722 1.2562115 0.26485297 0.7033711 1.1798991 -0.30254436 0.17708005 -1.1061409 1.2560595 -0.4072223 0.05729669 0.009246024 -0.0070310156 1.4476414 0.22769366 0.49774447 0.06999603 0.054875176 0.14151087 -0.5388454 0.6930032 -0.6939934 -0.68751544 0.31800407 1.1841652 0.37928075 0.7784292 0.5456281 0.5364515 -0.67657197
662 -0.26789653 -0.3119936 1.1251501 0.5001797 -1.1454382 -1.1852201 1.0746436 -0.45699465 0.16944912 0.62708354 0.35701397 0.099132605 -0.46098906 0.3161974 0.97676575 0.13694604 -0.31275162 -1.2655406 -0.13121872 -0.7878044 0.866625 -1.3030593 0.32828882 -0.41268152 -0.4881163 0.13544342 -0.036701255 -0.37856206 -0.080445446 1.6340562 -0.30404446 -0.88685864 -0.08210511 -0.9546668 -0.8087576
447 0.8650128 1.7564707 1.0526842 -0.51293087 -1.455842 0.28541523 -0.28310394 -1.0559715 -0.20862465 0.14005107 -0.8238649 0.58977246 -0.43994257 0.22224922 -0.24907324 0.8037348 -0.4134772 -0.4755355 0.44990376 0.2042214 1.1246068 0.34814903 -0.76520157 0.44048345 -0.7885498 0.37514687 -0.10159168 -0.9861071 0.19509333 0.6467291 -0.6593177 -0.61863464 0.6241212 -0.3704559 -0.16624905
365 0.6857544 1.9601569 -0.30760708 1.1662505 -1.3161632 -0.17582363 0.87538177 0.02131726 0.8001608 -0.42349625 0.016970156 -0.04233174 -0.7357224 0.3678828 -1.08517 1.134907 0.011576488 -0.79026395 0.5078879 0.46195728 -0.04330284 -0.6132118 0.011964785 0.49270838 -1.6685888 0.26097855 -0.95271873 -0.37749213 0.064516395 0.42044666 -0.0946115 -0.18364953 0.81556785 -0.5806872 -0.4874515
1456 -0.1985536 0.63364124 0.74873644 0.060397476 -0.7598098 0.96976966 0.5992309 -0.82333344 0.49291846 0.8030675 0.3096789 -0.26526687 0.3998443 0.26903954 -0.010753091 -0.7263401 -0.10455129 0.085010506 -0.3463477 0.5510734 0.87386036 -1.6274352 0.5352981 0.613169 -0.63569 1.0198117 0.28926206 -0.24343182 0.84421206 0.18105642 0.47315878 0.26726785 1.8023648 -1.0148761 -1.0982462
1206 0.18376316 -0.64788043 0.8326585 0.5814926 -0.4260317 -0.30586547 1.1863189 -0.3009068 -1.2178398 0.32247648 0.52319837 0.79997355 -0.79784006 0.34265843 -0.11901436 0.9563476 1.1201701 -1.1844037 -0.38122126 0.71244305 0.073941536 -0.74614507 0.2898201 0.22901012 0.5256396 1.3422363 0.38308272 -0.11145017 0.30668968 -0.33304003 -0.48639676 0.86590916 1.0167242 -0.382454 -0.6622222
1522 -0.52747804 0.2579823 1.1903024 0.24636942 -1.3569274 1.1221647 1.7473322 -0.39962798 0.3798295 0.07082525 0.024605183 -0.64962983 -0.5088718 0.47685316 -0.18325785 -0.17529379 -1.0912023 -0.34083644 0.38333112 -0.020813176 0.31297615 -1.1151537 0.6915691 1.5043832 -0.5197075 0.91115063 0.12115146 -0.291989 0.37121564 -0.7900108 0.21492524 -0.23720504 1.441801 -0.5595238 -1.2279174
1219 -0.48977116 0.53682595 0.5155793 0.6217698 -0.38296232 -0.36526883 0.51517284 -0.022882752 -1.107059 -0.020825153 -0.6804923 -0.1754207 -1.0122843 0.6219956 0.039026357 0.4922953 0.93936604 -1.3450521 -0.5083108 0.15355732 0.47014174 -0.82041633 0.17648312 1.017006 0.296792 0.6007147 -0.6457803 -0.10152319 0.4311429 -0.57060033 -0.6971569 0.55545354 0.8378856 -0.74987644 -0.17774452
1609 -0.8216351 0.23145877 0.7710634 0.19820741 -1.4347426 0.75507665 0.31300968 -0.5277161 -0.6505656 -0.20604342 1.3927553 0.39981833 -1.072888 0.8039541 0.93629044 1.0561064 -0.47807053 0.38145462 0.25317875 0.75278187 -0.618672 -0.7440601 0.9042836 1.2827202 -0.32909146 0.09497767 -0.76063293 -0.77056146 0.3388154 0.7853419 -0.8050665 0.15310965 0.5100451 -0.3761273 0.18679515
1439 0.28413653 0.44499362 -0.99678934 0.20453946 -1.0836636 -0.2143409 0.09814201 -1.1364325 0.43478018 1.2918462 0.4801882 0.59019357 0.0635222 0.109770246 0.32135537 0.7128581 0.39169738 0.20374204 -0.6444836 0.1391249 0.21082567 0.4056551 0.8102909 0.55415493 -1.155571 0.253942 -0.20245422 -0.69838315 -1.0491983 0.79181206 -0.5726788 0.38648558 2.1710114 -0.34250438 -0.5641305
1150 -0.01906443 0.9090256 0.92501825 -0.7607959 0.0806417 -0.041109376 0.16863649 0.4038951 0.20179075 1.1076509 0.45853958 -0.35899764 -1.3010497 0.36203802 0.49398306 1.4550644 -0.25781265 0.25708213 -0.40987793 -0.10190931 0.46208203 -0.32964808 -0.71025354 0.7673182 -1.7680821 0.50784403 0.37029803 -0.35668296 -0.15887189 0.30126607 -0.86997175 1.0453478 0.12722708 -1.2312206 -1.3427283
303 0.14161082 1.334351 0.861685 -0.29516017 -1.4880462 -0.45454058 0.11047853 -0.0583441 0.4156679 -0.6822851 -0.22164032 0.3583236 -0.65289897 -0.100090206 -0.9741026 1.2895498 0.39317563 -0.56060606 0.7957546 -0.7834529 -0.15196349 -0.22081295 0.700099 0.71727604 -0.7538966 0.9060291 0.62835205 -0.32368445 0.0048285704 0.8791162 0.29125088 0.09807536 0.9783896 -0.09083409 -0.31825796
541 -0.27541196 0.2556443 1.1413429 0.65577006 -0.045561086 0.83451277 1.9864466 -0.8708527 0.33058837 0.5771403 0.3847401 1.0538989 -0.67730516 1.5097839 -0.35501376 0.21480606 0.21655819 -1.0593462 0.124596864 0.09092778 0.1687239 0.44344255 -0.37410635 0.18028042 -0.5645552 1.0802805 -0.44621512 -0.7440159 -0.75687647 0.95977473 0.0073157013 -0.5312259 0.83474225 0.6595396 -0.6580482
22 0.16937423 0.6008858 1.060548 -0.45913556 -1.0417548 -0.22461252 -0.6364625 -1.1685598 0.6908836 0.16426317 1.7662857 0.5546085 -0.48680028 0.52740395 0.1280484 0.6335027 -0.1655782 -0.86929107 0.31110117 -0.66965896 0.8629274 -0.38523808 0.23784162 0.83539855 -0.29824132 0.28110805 -0.39246628 0.8916632 -0.026105335 -0.4390339 -0.43533644 0.6153711 2.2288923 -0.43095225 0.007882922
177 -1.0299532 0.059456628 1.1507914 -0.063774616 -1.3697436 0.92582464 -0.0023597528 -0.45640838 -0.45353568 -0.03205416 1.1427113 0.79736376 -1.0941801 0.4875696 1.0380869 1.1292259 -0.7652969 0.3053844 0.2352949 0.7736814 -0.32207158 -0.60680455 0.97070855 0.9143707 0.11001309 0.389807 -0.9136836 -0.5190223 0.7810945 1.080685 -0.9560783 0.41900095 0.51700026 -0.36092106 -0.0155024035
187 -1.0509791 -0.29350802 1.1602198 -0.5821753 -0.8738769 0.9071452 -0.28461635 -0.6674928 0.14075421 0.9277307 -0.19767638 0.74601823 0.19516613 1.102668 1.2237401 1.5036613 -0.97193646 -1.3996443 -0.010618277 0.27305725 0.09456345 -0.8010147 -0.020478722 0.20851864 -0.51105607 0.33233237 -0.5376072 -1.2268313 -0.35895717 -0.118471764 -0.23150426 0.7280901 0.44229913 -0.14506742 0.07164287
930 0.85950035 0.8999321 -0.40140676 0.3773732 -0.49930426 -0.15086883 0.026384516 -0.5609485 0.42950314 0.79809415 0.90775913 0.08088783 0.085371666 0.059159003 0.4465871 0.6407586 0.5117527 0.26986852 -0.57558763 0.008371714 0.59620565 0.9815839 0.11444426 0.8634222 -1.2017719 1.1130103 0.040818498 -0.74545485 -1.1549069 0.9938447 -0.8117886 0.70660955 2.2793453 -0.7481875 -0.5867099
139 -0.06953224 1.0953503 0.9432028 -0.9347721 -0.65710837 -0.66680336 0.8076477 -1.1643546 0.5407444 -0.7107651 -0.47219166 0.0076880134 -0.81228024 0.13669115 0.013739811 1.4429492 0.3800347 -0.47970945 0.6955746 -0.47374573 0.54440534 -0.27296823 0.81609464 0.3767865 -0.083397016 0.82522047 0.91178983 0.119495794 -0.8654 0.7868811 0.36478797 0.83883417 1.0874779 -0.3424883 -0.5142474
142 0.11732494 0.26488802 1.051484 -0.31836304 -1.2523772 -0.26029605 -1.2332252 0.15705134 0.43994007 0.053514518 -0.29322347 0.5942386 -0.7806222 0.5130298 -0.9800856 1.2367393 -0.20172037 -0.6422025 0.78473204 0.0722237 0.04023901 -0.7549648 1.8997947 1.1646322 -0.21593255 0.4368564 -0.090904094 -0.70398015 0.47391137 0.73781896 0.34407037 -0.24266276 1.4300722 -0.5775263 -0.06626831
1151 0.36231825 1.0608735 0.8947443 -0.15827388 0.23867224 -0.32842323 -0.24201849 0.65538 0.030375574 1.2076309 0.61668783 -0.016580867 -1.3286302 0.055923935 1.242909 0.95635 -0.18365718 0.56861305 -0.3207211 -0.1980683 0.02595666 -0.53607243 -0.688358 0.6944999 -1.4842515 0.759295 0.23138075 -0.9936451 -0.07774753 0.34841216 -0.9724538 0.91951835 0.65020657 -1.068427 -0.7083492
433 0.09769189 1.5505317 0.14699154 -1.345768 -1.1594292 0.69163275 0.14483705 -0.9964671 -0.3144066 0.8276186 -0.613849 0.44973424 -0.67833006 0.19115579 -0.42907703 0.044455905 0.21032636 -0.4872733 1.1494125 -0.31635588 0.92835903 -0.2121519 -0.2782323 0.20516515 -0.8467708 1.3541476 -0.55354154 -0.7470641 -0.10889662 0.51453274 -0.75788766 -0.6777545 0.87603986 -1.0224837 -0.30480406
957 -0.1972878 1.1783384 0.8205987 0.5259738 0.3303365 -0.032986134 0.58064324 -0.7849432 0.75880873 1.0243783 -0.31282917 0.93612504 -0.021551745 -0.5879063 0.7679821 0.047854792 -0.38219005 -0.4995941 0.41080016 -0.42530245 0.02923464 -1.3053464 1.0759867 1.298048 -0.30727243 -0.14376174 0.5265249 -0.79053247 -0.69635206 1.090909 -1.0620518 0.5926221 0.5866981 0.38314542 -0.42907006
79 -0.8443337 0.54983187 0.9634312 -0.5198392 -0.32284787 -1.4372112 0.3001988 -0.73192924 -0.06635067 0.2658382 0.8589506 -1.1808708 -0.36822805 0.5738026 0.27974832 1.2809964 -0.13223219 -0.81494415 0.35549206 -1.2939963 0.6398006 0.101260334 -0.25923598 0.51928145 -0.67807513 0.5391543 0.30393046 -1.2110758 -0.42006174 0.65247124 -0.6031088 1.0605837 0.4323466 0.10546591 -0.9467613
60 0.75655025 0.33262327 1.2274672 -0.3899716 -0.53115165 -0.38194498 0.00722056 -1.1669786 0.47711962 0.26168475 1.4426054 0.25804478 -0.31290662 0.40486917 -0.045861166 1.1531051 -0.18797715 -0.83331585 0.1475477 -1.0492605 1.060548 0.19051674 0.12475835 1.301026 -0.3067424 -0.04741409 -0.013396113 0.19051407 -0.21580532 -0.33846423 -0.5690172 1.24021 1.8990313 0.3381968 -0.13377982
1157 -0.53119165 0.36986256 0.42033198 -0.26364774 -0.37966397 0.23287775 0.6453895 -0.43869424 -0.7215852 0.7070716 -0.26155737 1.332226 -1.2867004 0.20847008 0.7231022 0.19864003 0.32164413 -0.5301511 -1.0538021 -0.48314533 1.2051606 -1.3214717 1.1240399 0.18981175 -0.8987548 1.1619568 -1.2656008 -0.81632954 -0.15060906 -1.3800256 -0.21076971 -0.32011956 1.07917 0.63512 0.25739822
643 -1.062792 0.15936853 1.5753163 -0.298225 -0.29771802 -1.5885139 0.066329464 -1.2677683 0.22800644 1.0182681 0.3123878 0.38390946 -0.7304486 0.62874395 0.7370344 0.051456597 1.0402161 -0.24915822 0.29796484 0.65229523 0.98018146 -1.0581584 -0.36748034 -0.25233403 -0.30667004 0.33809125 -0.3644218 -0.8987038 -0.94033855 0.9381949 -0.48542237 -0.7845944 0.7073178 -0.31645212 -0.14535642
